3.792275872848621887e+00
-2.593376771575638395e-01
2.195103149805064380e+00
6.861351608705401617e-02
1.881358940462602325e+00
6.361055969189932657e-01
1.657721794694748119e-01
-1.499631278508932464e-02
-9.338375097022387772e-01
1.027640909723897655e+00
2.075822666078620538e-01
4.628054452928988954e-02
-6.807734963776127524e-01
-8.323771281085035056e-01
1.643507753014002537e+00
-1.503527342638463944e-02
-8.293187638552808327e-02
2.900794125692752676e-02
9.730366794803671504e-02
-5.995144177802613772e-01
3.484528207249579346e+00
-8.866755382169917710e-02
-5.426246079616399154e-01
2.779771572377520358e-02
1.353183322489816265e-01
6.304608918095010173e-02
8.010159181686894725e-02
2.495027844743438195e+00
-1.179650069843063004e-01
1.693898744135319490e+00
3.286004631177358304e-01
-5.605628716299241310e-01
-1.305957067314475750e-01
5.038309158906307816e-01
4.774081369281313769e+00
7.068811699970720674e-01
9.394019348277980741e-02
-3.467323296128393406e-01
-6.206482137163557011e-01
-4.303404009828634691e-01
-1.570628909258527939e-01
3.737875732098887571e-01
-1.183025516966246110e-01
-2.405674819581257173e-01
1.139608751673577003e-01
1.997807421909049766e-02
4.031103494112345947e-02
8.596225153005378206e-02
-5.784444011390953849e-02
-3.249233239564690012e-01
2.328939864077044786e-01
-1.026081903373469023e-01
-4.874635244598672923e-01
-6.178524944523543921e-02
4.496566595821273604e-01
2.261962562424986445e-01
3.792688043336753245e-01
6.195451489722078597e-02
-9.752001484714731272e-02
9.617233224328534114e-01
-1.731195767537576091e-01
-2.029628054049666119e-01
-1.938745479572829555e-01
-1.905248624739453445e-01
-1.960072332970469455e-01
8.194399896095729829e-01
-5.858393081830745586e-02
-7.189732374844819418e-01
-7.218461984781480989e-02
1.631765471532976131e+00
-3.274088550432928679e-01
-7.487056829856462981e-02
-4.534871363849364845e-01
-8.155226388789715841e-01
1.550903948229732099e-01
2.232351461166966478e-01
1.140754966792254521e+00
1.561228694451611609e+00
6.915103070550870923e-02
8.081943766989228006e-01
-3.160952689826514450e-01
4.208953320080334459e-02
-2.548927151650259848e-01
1.201788786947941418e-01
-2.688814267024185467e-01
1.582027001287848123e+00
2.028779345693803027e-01
-3.508085039643863423e-01
-2.135236274220898567e-01
-7.483057339108610817e-01
4.169459742669963109e-01
1.934068044355789495e-01
-1.210821532421372387e-02
3.334820730896638774e-01
-5.512830248381459658e-02
-1.922941319596011348e-02
4.033656050471420840e-01
-1.758300258107206304e-01
-1.968485829525524755e+00
-5.484132617443648883e-01
-1.221577824303455018e-01
-2.543387526539785115e-02
-7.164282875808275497e-01
7.923924139400226885e-01
-9.071797855041519032e-02
-2.730524010971835044e-02
-1.247783379368231915e-01
-2.367511446378213827e-02
-2.612663277555458685e-01
-2.550037849128942158e-01
6.239185948294769801e-01
1.414083651341328240e-01
3.434644893570516777e-02
-1.598763581815454138e-01
-7.706722967939994007e-02
-1.053110984783234561e-01
-2.716897167089563081e-01
2.260271523100086388e-01
-1.158258472315640275e-01
-5.280017363057812885e-01
2.987467969207447949e-01
2.181199255986067953e-01
-3.302720778204575325e-01
-2.096840680852238292e-01
-2.230412319114881414e-01
3.458330236456259588e-01
-2.484325425238629453e-02
-1.525571413490065809e-01
-1.044542883814083417e-02
-2.331644316128131389e-01
-1.830947660915996367e-01
2.795141132026384145e-01
-3.618536353644121184e-01
-1.613685364763507435e-01
-2.805579853654712186e-01
-4.292855952918722684e-01
2.256116675098315261e-01
2.744219862513642139e-01
4.610527785114783283e-02
-3.934387143112165752e-01
2.022572809229412072e-01
1.505477608151182256e-01
-8.214880713199632090e-02
-6.254977597037266746e-01
8.245178135989535140e-02
5.920832400571977155e-02
-1.742128250087861541e-01
1.738033092777008903e+00
-2.927726620158761506e-01
-2.285829835348189842e-01
-5.785872077627696175e-01
-2.807278320151235240e-01
-4.139764301878071096e-02
6.984144830748682808e-02
6.590464923200568814e-02
-1.895508981167395579e-01
4.355536168603642011e-01
8.613129903161880208e-01
-8.259689349090075794e-01
-3.396997961330341931e-02
-3.133000540194207373e-01
1.105543296804870936e-02
9.202967603314328449e-02
3.953162659310210242e-03
-8.718093342219620512e-01
1.258979188953359418e-01
-1.588473193694726060e-01
1.392359472923150598e-01
-1.620031822742722333e-03
1.264110716515109700e-01
4.633451929909366829e-01
2.184853774000278248e-01
1.879681150092838704e-01
-3.352159983511949770e-01
-4.234395865778283613e-02
-1.811192644243357630e-01
5.162529320797704102e-01
-3.617537877804511970e-01
1.934726720135516942e+00
1.095125861379713482e-02
-2.177419656389091226e-02
-2.260496594210933685e-01
-2.075644935508496602e-01
-6.714479152282502028e-01
5.237982427552999587e-01
1.075446351986588223e+00
-6.830829075049997534e-02
-8.946034514707769392e-02
-3.267915063767847794e-01
-6.054600484104495361e-01
1.450984127764786968e-01
6.035971804214475267e-02
3.130698208085526679e-01
8.468215084685912220e-02
-4.001563283892834444e-01
3.617108744117912833e-01
-2.652455371513723348e-02
-3.907577302216707626e-01
-3.850083793563989498e-02
-5.574684732858044972e-02
6.158080654518284514e-02
-3.282983585969614926e-01
4.973288444805731845e-01
-4.250728118339762163e-01
1.651920112313719213e-01
-1.111524341826651274e-01
-4.771623826415060665e-01
-1.569376133960234398e-01
-1.470673850046565756e-01
-7.731107258312240882e-01
2.375661675555268693e-01
2.260284853489124071e-02
5.964719396968420212e-02
-2.137188509702887262e-01
-4.053574716323913862e-01
1.227178545666773202e+00
6.195850040713650692e-04
-2.521363823836127449e-01
8.334388912101896307e-02
-8.927769034589165542e-02
6.469779885121775820e-01
6.005326607616926493e-01
6.396419399043379306e-02
1.112624600840690925e-01
1.627714344555752646e-01
-2.128150863266878995e-02
5.640208394807358916e-01
5.016641572953595141e-02
-1.501314512289358971e-01
-9.959499547104125883e-01
-1.231708198081819861e+00
3.006415463883624906e-01
5.545925669932181418e-02
-2.540744898906086013e-01
-6.305946412934440581e-02
-2.143534707013117213e-01
2.475710378479416829e-01
1.129383287828719939e-01
-4.602116934330764408e-01
3.072385263918837178e-02
-1.967006592993771619e-01
-1.564171829251241874e-01
2.845337183248853319e-01
-2.709761961680983156e-01
-2.189222576119766728e-01
-6.066452643988460292e-01
-5.847789429605604328e-01
-1.743631080527293098e-01
1.394614683126445091e-02
-3.718426635920193402e-01
-2.276779835674378749e-01
-5.434510541445264353e-01
-1.587933191062551819e+00
3.574676088310371758e-01
2.407651362265382788e-01
-1.023326742804856193e-01
-1.920839347286530940e-01
4.242682268955126346e-01
1.879924508341872802e-01
4.039335649442546416e-01
-1.052192385303308692e-01
-1.401986223528245978e-01
-1.831609439274272666e-01
8.054416506143635690e-02
3.754025878889151735e-01
9.833832078940950294e-02
2.617217124896518143e-01
-1.099711061976050008e-01
-1.966837379064242386e-01
-3.547034227946212481e-01
1.674159837374253612e-01
2.009341163232271077e-01
-3.216475250011464060e-01
-4.296493163412898331e-01
-6.086018707649820669e-01
-4.091474470638272742e-01
8.725726733190573847e-02
-5.001769123923509586e-01
-2.853419668380114960e-01
8.792456337682389433e-01
1.070249523497195820e+00
1.128482167598551661e-01
-1.303802761887934980e-01
-7.617363426564508488e-01
-1.446388642835095273e-01
-1.728613807345446562e-01
-1.587823841339066899e-01
8.079206959695907075e-01
-2.759281716967544318e-01
-2.791726137146428033e-01
-6.739780003895459171e-01
1.106658951272496694e-01
-3.767978088788982195e-03
-3.113692226978236333e-01
-4.960084959986058029e-01
-3.243866386571249705e-01
5.890361026880910345e-01
-2.180494780185589787e-01
8.742484033610641025e-02
-9.028300946366931701e-01
-1.225061181808415334e-01
-1.098746183301368307e+00
1.325618552060663646e-01
-1.864331686689220668e-01
5.248444107183691809e-01
4.444832302665706059e-01
-1.225565943685840153e+00
-1.477026954738022813e+00
2.677611966675812472e-01
7.273759053723657941e-02
1.036791132426177070e-01
-5.713783593654794823e-02
-5.914177494397119261e-01
-4.936993397031520514e-01
9.588919491820663277e-01
1.028288254147628367e+00
-1.699833638106669764e-01
-2.742485910256486914e-01
-2.035053414055758569e+00
-5.734429102604895467e-01
4.632957379405700515e-01
4.562004328115146778e-01
6.203854868516789356e-01
-9.340392144480529346e-01
-1.225569992047662815e+00
2.229141798345830872e-01
-1.174807389568612859e-01
-2.537267670856137025e-01
2.556925395422300906e-01
2.818241192349538182e-01
5.338924217058880206e-01
1.193565673080495965e-01
-8.527965891408977317e-01
-2.740939918776948425e-01
2.969435162080802382e-01
3.055990771045022369e-01
-8.399996262229506572e-01
5.998366916677000393e-01
-3.786681493053521419e-01
2.059414425699263029e-01
1.177998484485793390e-01
1.170084796741268918e-01
1.295241348752067256e-01
-8.563897876712428525e-01
-2.597602330061410392e-01
6.265563842917919180e-02
-3.068657259162542172e-01
1.826555689131199867e-02
-7.699652169183219819e-01
3.976446669405500622e-02
-1.567914163299899410e+00
4.076119129557317922e-02
2.654907564246403173e-01
4.839640611108805279e-01
-5.784343462479994008e-02
-2.210642013450454524e-01
6.934240551857446810e-01
2.244472967048037337e-01
-3.131524434911633348e-01
-2.668151193782486441e-01
1.067056924528816536e-01
3.319050349908975739e-01
1.189688377963383642e-01
-4.407225003224102822e-01
-2.669538758134588560e-02
-7.147896983032151486e-01
-1.722670725981887141e-01
-3.367565019398349995e-03
2.057466793712902087e-01
-4.692647930232746178e-01
-9.488597722166750570e-01
-1.889814170730367726e+00
-4.734792838422671180e-01
-1.816348121271413318e-01
5.742445551948281990e-01
-8.953266624637274962e-01
1.720190809017110023e-01
-1.988224937047216923e+00
1.588161648161726225e+00
2.045344116758242237e+00
-6.350166596517677065e-02
-3.004458781915701759e-02
1.841704029756545055e-02
1.103230691230277172e+00
1.169761154537670489e+00
4.487174106051601830e-01
-5.941301181580916912e-01
5.205255271343731116e-02
6.054726806211191414e-01
1.104951604352074207e-01
9.544000631885490860e-01
2.628892073008335384e-01
-5.262914177811445215e-01
-6.168830535838644158e-01
-7.782831967718135957e-02
-5.303071511446610931e-02
-2.039445371737633461e-01
6.522402311657438112e-02
-8.721466418047487679e-01
-5.442275097216897617e-02
6.513060832080010965e-01
3.493331091972684543e-01
-1.520781614025301209e+00
-5.680650902821526849e-01
-4.213632837912663076e-01
-1.135123237555881071e+00
1.706438796287756687e-01
-2.798125439933362713e-01
-5.031523916474380798e-01
-4.485850147463918414e-01
-4.888995908337644830e-02
5.118935556896578865e-01
-2.470444664858352513e-01
-3.904000816568317100e-01
-3.314404313486082887e-01
-8.046152753502222588e-02
-6.639657617390131161e-01
-3.532686808455089422e-01
-6.590374881063591761e-02
-1.981201166128803981e-01
5.517151974120230312e-02
2.231036260075487318e-02
-3.586219306892702852e-01
2.449203604815576238e-02
-3.737271629111897919e-01
5.655520987334583527e-02
-2.226699679178072711e-01
-5.714334260724247827e-02
-5.861061385114348932e-01
-1.313361345245197265e-01
6.584447387127979612e-01
-5.885213337290778890e-01
-2.361024955336734066e-01
-6.423339581972012935e-01
-2.349250122978093547e+00
-1.799119975079545020e-01
3.190746128210235066e-01
-3.831649171156953915e-01
-3.141483624021144117e-01
-9.757226524321483963e-01
-4.979157995500788081e-01
6.512717747771887833e-01
8.118687095445371593e-01
2.806885583055230837e-01
-1.089272976361548295e-01
-1.248291080238679962e+00
-7.416100064987133367e-01
-2.472029944856629913e-01
-2.325850429638867678e-01
-1.989335282352890089e-02
1.299144421804173943e-01
-5.942652803093951830e-01
1.660165676526759448e-01
-6.797612015601918189e-01
-2.335422019602036436e-01
-3.915067004650535365e-01
-1.565801627286504127e-01
4.285518923789060075e-01
-7.527659347933539635e-01
3.811363999883022324e-01
7.292483715208440964e-01
-1.142381961540058555e+00
-1.186317531723533270e+00
-1.535438263411170956e+00
-1.795307679960918001e+00
-2.812945295352948794e-01
-7.454383841810647837e-01
-4.170900401767158733e-02
1.348808785617116923e+00
9.718661733813431791e-01
-1.108966863743452658e+00
-4.757085432994632712e-01
-1.891996205028751099e+00
2.463991595126613088e-01
8.273142658032932584e-01
9.463994532759961720e-01
4.784552552879857701e-01
-3.343206430779316896e-01
-8.371150743118258575e-01
1.234625225425462158e+00
-1.384652591427909356e-02
2.883571637662942777e-01
1.489470245534337267e-01
-1.357923117746419273e+00
-2.144995117016448502e-02
-9.361717701350703857e-02
5.131278214561422191e-01
1.034423911230118037e-02
-6.160533822490803502e-01
-2.480643303879801920e+00
1.355963923731050014e-01
7.978398213228907188e-02
1.140108031657509347e-01
3.198950297807093279e-01
1.748268241569400083e-01
-1.830485903713207962e+00
2.309142007178663358e-01
5.851953337857062065e-01
5.676881027201287067e-01
7.118897548157454569e-01
8.129796735656968920e-01
5.073680118543699713e-01
1.297105120347509022e+00
-7.248881826867502320e-02
-1.900857863081872046e-01
3.608106301016247297e-01
5.531080622989804629e-01
5.136260261653520232e-01
1.494372307223745588e+00
3.105391263153715609e-01
-7.944174271502958407e-01
-4.402520747366058251e-01
-4.065282070634138600e-01
-4.634512508509667783e-01
1.294245091873890141e+00
7.621669476164337764e-01
-5.689673403036576982e-01
-2.117142647544235867e+00
-8.686470289963502678e-01
-1.019248854931983139e+00
1.246889998563466273e+00
4.967274982178427889e-01
-5.842723862626952869e-01
-3.889878317845408828e-01
-5.246924632551600576e-01
2.755061303367944414e-01
2.162607755250864905e+00
-4.929676403254940054e-01
3.029213905923780481e-01
2.909855763586364219e-01
3.790327986613360456e-01
1.124818610320269530e+00
4.665192885115291288e-01
5.806267892180790868e-01
8.374046253041648180e-01
8.755512387645782990e-01
8.263247188615639727e-02
2.148984309504545498e-01
2.990109608958480547e-01
-3.820007956770165025e-01
2.868439203050611730e-01
-2.208477858036363151e-02
-8.131429785247058506e-01
-8.881346349440251420e-02
7.421967019257540432e-01
1.293653895389312025e-01
2.054805120388582262e-02
-9.296189357748356752e-01
-1.994966395458653841e-01
-7.305158893548291399e-01
3.811160135038965113e-01
-1.277211690754112838e-01
-5.467332294414095628e-01
-1.208030590711698160e+00
2.864165304477913621e-01
-1.561073720737809201e-01
5.147457506601630373e-01
-6.720086324859453342e-01
-2.370316546074576980e+00
2.060586573845007152e-01
-1.933504304014818542e+00
7.263419723514271675e-01
9.676611508117949345e-02
5.414984356840421564e-02
1.993109680074355849e-01
1.579641587283656667e-01
6.667565730743627572e-01
3.526205783833930574e-01
1.566217691668293222e-01
5.755144742875176189e-02
-6.973101323306538091e-02
2.204975150393155003e-01
2.856735289260964317e-01
1.945508399962421475e-01
-2.990248045907752464e-02
-2.347920942981785997e-01
-2.299926101928356503e-01
5.536647669662732030e-01
2.256706028217753401e-01
-2.629056328780655094e-01
-3.812769282602985754e-01
-1.609388100609029093e-01
-4.436483260672151596e-01
-4.449846923541042609e-01
-4.805908165796864973e-01
-1.433751934359478231e+00
7.205183655969486616e-03
-1.349289403007230582e-02
3.398121831197077891e-01
-1.581087934317064514e+00
1.002397323350197322e-02
-4.513002400890074872e-01
-1.410194354009838724e+00
-6.653470756437770799e-03
-2.966834926311177512e+00
9.255830711087746909e-01
7.236162916374585530e-01
-1.357252725619249589e-01
1.087163529415087482e-01
3.162156711653901775e-01
7.794568513265245358e-01
6.684327349805895269e-01
3.769308360139370095e-01
1.846377398642485568e-01
1.486957885725649631e-01
1.218591225643796072e+00
-2.233627822811878605e-01
-3.609517326522128644e-01
2.542715101785690268e-01
1.897156913516226742e-02
2.809940851320297597e-02
4.340153603784847047e-01
1.256803083953650368e+00
-7.174193213468633978e-02
2.593798853599015297e-01
-5.259507038898884046e-01
-2.448007383919986735e-01
-1.004401656075120108e+00
8.414625193903411127e-01
4.174454529882716258e-01
6.197069788749796082e-01
3.411748394054136546e-01
-6.478748936674941783e-01
-1.479022933462334377e+00
-2.176808489873275132e+00
1.219067684024632614e+00
3.277170924666095719e-01
6.459059626777717833e-01
-1.017788965556948755e+00
-1.827575831167191689e+00
1.070862301750216794e+00
7.927208583929418184e-01
1.470761813043831356e+00
-3.803413470182391287e-01
-1.427767185691643792e-01
-2.035460433351349852e-01
1.587647776354551843e-01
1.159009100398616932e-01
1.247272040902628776e+00
5.166392643716310323e-02
6.194249813600259946e-01
-5.906456314354145976e-01
-1.435052640400420021e+00
2.542970952376935601e-01
1.982707071242965635e-01
-8.729061128904423358e-03
7.318418846206048434e-01
3.951932085819751528e-01
-1.451961897798374590e+00
-5.279937318363322474e-01
-7.148126087773802873e-01
-5.019862397816025057e-01
6.586160591198794712e-02
4.948877923460302530e-01
7.252613723416951874e-01
-7.640636250790584505e-01
1.931744844025253538e-01
-5.987742265536102892e-02
6.131117209941612245e-01
1.300933812159890568e+00
-2.101166660955189613e-01
-7.793601923820997479e-01
1.102473974803838130e-01
-4.511703651580237229e-01
6.080190898142950884e-01
-6.674107396776258749e-01
1.013645676932325435e+00
2.301019955178816301e-01
3.189737702347013593e-01
7.864985909968248701e-02
-2.200108561585820688e-01
1.017796797402256814e+00
7.504359742990756033e-01
6.717876632315568086e-01
2.617357844790764165e-01
4.323809283877836918e-01
-2.657930300691974113e-01
1.155626122729486172e-01
2.267417340628360145e-01
2.787365043441020944e-04
-5.321520732577383894e-02
4.565825187531261653e-01
4.737404729042184459e-01
-2.875382921011797599e-01
3.275975838434325854e-02
-1.654932607111940512e-01
-9.243310508573888973e-02
-1.353206083714411923e-01
-6.946798399785021338e-01
-9.581230850558493106e-01
1.765195751087364762e-01
-7.741777264279812165e-01
-4.869889606656104819e-01
-2.507788864549675423e-01
7.372785210022403390e-01
-8.951463100185961252e-01
-2.839419269032573134e-01
-9.049282108220776388e-01
-4.579347588625402032e-01
-1.258006493758195177e+00
-1.032885386416907636e+00
-4.855187772632258564e-02
-8.631872994166989542e-15
-9.016065851646009044e-01
1.439082705720190258e+00
-3.744649869983049384e-01
1.154490773937552790e-02
7.868807017624336320e-01
5.713327368256995165e-01
7.271435666992979163e-01
4.234872671753244777e-01
-4.951583612185712913e-02
-2.534255633111770489e-01
4.150818273894841814e-01
4.292611613490497358e-01
1.540638685978829914e+00
-5.235202215249179503e-01
6.033572630656628411e-01
-1.898950846469555365e-01
1.613951193086276825e-01
-6.984542221729525546e-02
2.944273328073971352e-01
6.172961779724946835e-02
-1.050150380155867591e+00
-3.255219464990136147e-01
-1.247539307317475421e+00
-1.308811807049459430e+00
1.414597338525988290e-01
-4.402971233986314736e-01
-4.498901308281236244e-01
-6.198734742462291836e-02
4.171226077166685919e-01
7.195691320838705218e-01
-3.836510739787470092e-02
4.483334447862687144e-02
-1.254704868605602819e+00
-1.153158850718345896e+00
-2.236226878010313945e-01
5.360643013052838191e-01
1.825173345803331123e-14
3.136479964620802495e-14
5.132799989712151234e-01
5.107207670025228907e-01
4.502926143023598150e-03
3.289709889516090890e-01
2.697086449019416299e-01
1.505976654423699879e+00
4.081246950170546728e-01
5.053469596417576870e-01
2.858241029545652290e-01
2.644281939582516228e-01
1.234668872834053660e-01
6.716026393467843247e-01
6.328991125559787490e-01
5.728969314222692732e-01
-1.399261344323082801e-01
-4.728236939687346374e-01
1.326039377948112497e-01
3.098928373130721559e-01
-3.284982101756307449e-01
1.387999746510733823e-01
2.213734193021820451e-01
1.419216515980920024e-01
-1.006628926041863270e+00
4.692605911335703817e-02
-4.673870469359416302e-01
-5.499647925929543879e-01
-8.744552085098011851e-01
-1.007304552556353316e+00
-6.733574377044204695e-01
-9.293221894452674547e-01
-1.187042449880997275e-01
-6.796199122823879391e-01
-2.820019940804062153e-01
-1.225318914877421062e+00
-1.049909353540801726e+00
-1.452190095358369126e-01
-8.166800569112604644e-16
7.396860901536442978e-15
2.683520072845884205e-15
4.263857763095157405e-01
-3.926814347184425236e-01
-6.217771754356686831e-01
1.685901067711883250e-01
-7.432678087740321460e-02
-7.605529210603729773e-01
5.511142141575781084e-01
-2.515605290573421637e-01
3.581554329655813884e-01
-1.868246580255447653e-01
1.603323495695656298e-01
1.085172908276034853e+00
-4.695932819623888088e-01
-3.887717692135779224e-01
-7.992762935581083916e-02
1.678822713531260002e-01
-2.119673204548171153e-02
5.057960061154415099e-01
-3.003232184893786516e-01
4.341529083778390974e-01
-4.533607440457020354e-01
-2.834855039792261167e-01
1.287265698258461266e-01
-4.654242597287966965e-01
2.353605310617716551e-01
4.091782224241545807e-01
-7.001063925296765501e-03
-1.050525341352403219e-01
1.402063481984995030e-01
1.886659457586731814e-01
-4.693507059313080099e-01
-2.627574172995765234e-01
2.093050745892222064e-01
-8.967451982068662675e-01
7.119031181069680470e-01
-4.274914618496922225e-01
-7.670974966335155740e-15
-1.223576795439553928e-15
-1.765976254129828753e-14
-3.029576589596076354e-14
-1.883361105906594668e+00
2.044044581907943137e+00
-4.353201601018676925e-01
1.312235435737151568e-01
1.428703922080646116e+00
-7.590280108061590036e-01
2.567753655725958151e+00
-1.346913822067436817e+00
6.436420370768368704e-01
7.644759788325664607e-01
1.073404835523699807e+00
-6.385030143739121034e-01
4.737109981157686667e-01
7.103557699278618687e-01
3.197890908896587336e-01
3.467986676806051327e-01
1.858373312451296611e-01
3.259541058631504340e-02
4.985219209132172313e-01
8.052867809258990039e-01
-1.730389358189726723e-01
1.734316204327599031e+00
4.294141151309123217e-01
2.132437762076452525e+00
-9.065500180404356678e-01
-6.571704777719268309e-01
-1.568753395169575793e+00
-1.173022158757727196e+00
3.506625664091949091e-01
-1.576810756531399349e+00
-3.645553301822183623e-01
-1.866014364776114265e+00
-1.235715199597914760e+00
-1.102688699181658682e+00
-3.679045781000316873e-01
-1.287204447927612794e+00
-1.227520161986643370e-02
1.826497471393917493e-01
2.437155603341639720e-01
1.539419812865851389e+00
1.927259563725382430e+00
4.551942458382965059e-03
2.748649601600972742e-02
3.556099372283812177e-02
7.961559329500768681e-03
4.877888492206903376e-02
2.524692924156368007e-03
6.276513496037165740e-02
1.623625055443626286e-01
4.654130811392613587e-02
4.017427084377184210e-02
5.858240677407319796e-02
1.050570106386950198e-01
1.377453963930369563e-01
4.563202385879983752e-02
1.494725130899476895e-01
5.786498600250696012e-02
5.528917791113693858e-02
7.474989100899624705e-02
1.397851049111757948e-01
1.220308982780729246e-01
2.924041663062890151e-01
9.861116197542094119e-02
2.565776993413071971e-01
1.077428166793516773e-01
7.903982735510536317e-01
2.433795086704562405e-01
2.081298215160037046e-01
8.975033459532312241e-01
2.276293439204096214e-01
3.224700826257341224e-01
5.402869108533550069e-01
1.960785995790429448e+00
9.254966703416792617e-01
1.177129247962380498e+00
1.070808547374621833e+00
1.513578430064757896e+00
2.270975444337086646e+00
5.919112441251246359e-01
2.361174239322592960e+00
1.037277235482981785e+00
0.000000000000000000e+00
6.574114245989864713e+00
0.000000000000000000e+00
-1.183238922249348457e+00
-2.064076735331390466e-01
1.626086794123997870e-01
2.154644997475151091e-01
2.179256711685889358e-01
-9.288172737810751478e-01
-9.370333235731516386e-02
-3.861859910358937387e-01
2.515539021106814876e-02
1.228631767043610462e-01
2.433522920791519537e-02
8.925554862079095875e-01
1.410078056261707818e-02
2.386138765724296271e-02
-4.236467108493949946e-02
1.408834498041880157e-01
1.948076032148105541e-01
5.406053149162769467e-01
2.109441522424218840e-01
6.230463767207380377e-01
-2.150532594828958310e-01
-2.268142588705468754e-01
8.243828961711451020e-02
1.106869247892776631e+00
2.318140016967523698e-01
-4.594118388289485377e-01
1.996041709550022414e-01
1.633232437562133488e-01
1.020915383977215735e-01
5.603420939634514708e-01
1.836950646406953602e+00
-1.009903775661688402e-01
2.201435515114514574e-01
9.473426419054710168e-01
7.792783148975597207e-01
-5.047244637612506579e-02
1.508751622075793719e+00
6.146789675274182407e-01
-8.565387033433394803e-01
-8.435198812823231362e-01
1.646095360198301244e-02
5.697073202637789047e-01
1.553575012129120303e+00
0.000000000000000000e+00
-9.357708808653736332e-01
4.538979381000694535e-01
1.492100044775006129e+00
-4.166494105097260925e-01
2.731504635470857423e+00
-1.849751201260800004e-01
1.414111653286633796e-01
3.059911638730979933e-01
-4.334455949900655608e-02
2.694747910310929528e-01
1.624859863682691641e+00
2.748420389677850850e-01
1.699321279238626969e-01
1.434833210287198013e-01
-2.112748388888043838e-01
6.929454101422860557e-02
3.001330530687431053e-01
6.770909116700579711e-02
3.648933102395309214e-01
-1.527576074224287241e-02
7.122989974232457611e-02
-7.182910081222582122e-01
4.482199264075901191e-01
-1.512014670830428287e-01
-5.530613204247004644e-01
4.932564466038764084e-01
-1.254171692554661988e-01
-9.684724261984918592e-02
9.723895807794940005e-01
5.725446133926577197e-01
2.101131050697210845e-01
-8.262569323331282745e-02
4.705631673870503962e-01
7.670446137932864783e-01
7.172605781832088745e-01
-1.094494338485506868e-01
7.645172410061288337e-01
4.936276052447579610e-01
1.342697787109081942e+00
2.082087167457515875e-01
-8.511315255788810541e-01
2.353130978212203406e+00
2.724827796757647302e-01
-1.118687668089550502e-01
0.000000000000000000e+00
-3.837047193692582070e-01
1.709192022094174757e-01
7.269149524827352160e-02
2.036490617888991883e-02
4.556807360427919673e-02
-2.162368516751607961e-01
2.379895241427676389e-02
4.959909033701004888e-01
-4.199950703032864774e-02
3.023985262115049255e-01
-6.809273318264826014e-02
-1.330751319834108659e-01
-1.886817958459608424e-01
-2.045728349133479895e-01
3.679183875902039547e-01
-6.088417928193801121e-01
-5.671023071385605796e-02
9.501946431960646422e-02
-3.589187682180868255e-01
1.387728190176668597e-01
-1.413570417223167230e-02
3.102639533140377215e-01
-3.989886721786983781e-01
-2.406676310277758024e-01
-2.329593209392181730e-01
-4.271688129453074523e-01
5.015169946133138934e-01
8.536015724565793050e-01
7.998478544557477976e-01
-1.384321580347022407e-01
1.337013720425576646e-01
1.235766220622781963e+00
8.774571046871998403e-01
1.006629173484501427e+00
-1.076932831778614364e-03
8.893730895852529628e-01
5.545546333735478228e-01
1.717540443873747172e-02
7.116349288061737943e-02
1.305715681958668217e-01
-1.058129064922761348e-01
1.955185156737845542e+00
2.761815917640528806e-01
3.190629365410030394e-01
-4.465101353636950487e-01
0.000000000000000000e+00
-4.918600877869874211e-01
8.169576123631794307e-01
-1.528634316795147996e-01
2.638100670252329083e-01
-1.489732543758600092e-01
-1.167043663959884958e-01
1.286527276872287961e+00
3.369884343823011386e-01
-2.264592931824364330e-01
-1.107287193597678854e-01
-3.763349565876448755e-01
9.467930062303731020e-03
-2.624290558141807450e-01
-2.807509330772224587e-02
-2.367740833231367359e-01
-1.744709682009733809e-01
-6.281833473906240381e-05
-3.059182643137401958e-01
-2.249398851600064794e-02
-3.557356927706717964e-01
3.586017982684203687e-01
-4.920190935541381844e-02
-4.454731350185693328e-01
-5.439702215570713095e-01
-6.207024912692133967e-01
9.389559398604554463e-01
9.769427376992676493e-01
1.072289617666906114e+00
-1.714328662525912636e-02
3.354985919572416736e-02
9.801106434580834081e-01
9.111388255017680571e-01
7.660461710361259335e-01
4.103859915922757895e-01
3.278641155120286532e-01
4.613212934200212889e-02
-1.539683567184822743e-01
8.096286140380026808e-02
-1.245642913088159665e-01
3.521306322243815123e-01
-1.839138216160097483e-01
2.028262895666419485e+00
8.875663644485357606e-01
3.762238627936075885e-01
-5.126414397399851053e-01
-1.754838698386800511e+00
0.000000000000000000e+00
1.481727005764394756e+00
-1.248451740652219005e-01
-4.582087147392123472e-02
-2.018038598391460325e-01
5.511470848354056706e-02
8.385826247265812938e-01
3.318082790888852607e+00
-5.109227889577901832e-02
-3.920129451559878908e-01
-7.937789391643529369e-01
1.903465679647963361e-03
4.434490369910598084e-01
1.431895249206510901e+00
-8.328965460424327949e-01
-1.127912207870091166e+00
9.746608123852994188e-02
-2.929235633575225650e-01
-1.825118146884119885e-01
1.696714102276930758e+00
-1.094026745619368773e-01
-4.471053167527208605e-01
-1.267118902023991467e-01
9.787794937857164923e-01
8.762920417800276196e-01
1.295189652675305503e+00
3.410602459150289395e-02
1.394353223516636708e+00
4.536443953643664040e-01
-8.539700051868438779e-02
1.261325049405038090e+00
5.329825699914361170e-01
-8.024197531622552504e-02
7.742273927023470836e-01
-3.148151616443066181e-01
3.543226191244887580e-01
8.916043165191928077e-01
4.329822454601071069e-01
-3.799402240816911885e-02
1.923859186463029031e-02
2.602557934397426581e-02
-3.025323487072313355e-01
2.532263742210241642e+00
9.656814246457659512e-02
1.131616376757908771e-01
-1.791012472103208353e-01
-9.010045468647842615e-01
-1.109655166403598292e+00
0.000000000000000000e+00
-2.945690634716534584e-01
2.518507285305864873e-01
4.623801560901826813e-01
2.750140823763982945e-01
-2.484847572277988359e-01
-2.129541107618204254e+00
-2.543379927855952682e-01
-6.578113719178833863e-02
6.136281558830113392e-01
-2.152508350289268624e-01
6.741748308037647242e-01
2.804107385335579683e-01
7.249515941430174637e-01
-4.660489235147100562e-01
-3.191660901962056207e-01
9.309206962930273443e-02
7.973041847815112160e-01
1.622939841285346629e+00
2.773745662109440846e-01
8.100823597245779828e-01
8.400410472862859246e-01
1.623309194590324633e+00
5.078689102753698448e-01
-1.956657656040254045e-01
-4.738264671530179606e-01
1.317256884265079142e+00
2.010503656816042817e+00
8.773119023376950709e-01
7.503340745431418268e-01
6.421555796658083848e-01
-3.943483548395393945e-01
4.313236220932226694e-01
-2.435199298358507181e-01
3.795577853829483206e-01
6.105065477147869402e+00
3.566068579344957440e-02
-3.781944308321041892e-02
-4.325363986388625764e-02
-2.498255038270023182e-02
-1.747360609506179718e-01
-7.443376295328447689e-01
1.581364043669474695e+00
4.355556263852576326e-01
1.881172025970901496e+00
6.508575210867575400e-01
1.215419725352962832e+00
1.258792519442683222e+00
-6.222306820807061989e-01
0.000000000000000000e+00
-9.230024052017840042e-01
2.422757834310870773e-01
5.532217151782278242e-01
-4.333539696118430817e-01
6.283991715414645185e-01
-9.199694000329636245e-02
7.741419384335910571e-03
1.854314547379370959e-01
1.359982458455014920e-01
3.141467320246273953e-01
-1.786313371969664721e-01
-2.782930821957702583e-01
6.016336330060277904e-01
-2.303669915097784349e-01
4.108834258406917073e-01
1.674183899032369305e-01
-5.348913240005515046e-01
-3.649221128917011225e-01
-1.276896505118110259e-01
-8.286163331637441676e-02
4.102479952792901785e-01
4.273788738546688282e-01
3.886469728150040437e-01
-8.463501611573086558e-01
6.711896652563036358e-01
2.530698488248949718e-01
5.335866285965713551e-01
4.482810182889069295e-01
4.024059209094461576e-01
1.118408537198186004e+00
-3.428493583776880960e-01
3.613077263211182388e-01
5.792794218403036766e-01
1.312383880629669264e+00
1.480404353449059629e-01
-1.983387399228661307e-01
-1.596298418552209109e+00
1.597825521812271943e-01
4.336260271027744806e-01
3.676975371183484609e-01
-2.975964257098725335e-02
1.462879794013093315e+00
-3.059535103979068790e-03
-2.801908520687815263e-01
-2.115159649264543029e-01
9.229622957134765715e-02
3.552897534983050498e-01
-1.709001120705717358e-01
4.981454784032604000e-01
0.000000000000000000e+00
-2.396417063602858388e-01
4.427918759597990889e-02
-2.408590888555115772e-01
-4.785580780095589903e-02
1.294103193382081463e+00
2.042038701875997231e-01
-2.490086024580543400e-01
2.187633451099352602e-02
-2.010970636380002285e-02
1.025290840678934473e-01
7.139691005290801362e-01
-1.166149329442215388e-01
-5.061407121861353359e-02
-4.151737358816640078e-02
3.028981729797373262e-02
-9.981801799534414932e-02
-8.377971370833028897e-02
-4.683643445231092661e-01
-1.872534992258133579e-01
8.638770420202056544e-01
1.153161617602385808e-01
8.231699517847502756e-01
1.899155226632051052e-01
-3.890149787987048219e-02
5.206435533313685457e-03
-1.016777370210739939e-01
1.179100325972993746e+00
1.441339668616879732e-01
8.065220628715560336e-01
5.782107762141807106e-01
6.610889006979032700e-01
1.017365598789132353e+00
1.009553045325138898e-01
1.383941978966151121e-01
-1.261630504839937050e-01
5.968051256110529224e-02
4.709956011502865886e-02
2.397680854475844336e-01
6.352349391498585129e-02
1.273502933899674228e-01
-8.960459294744142766e-02
2.364626076889847273e+00
8.892335565089989902e-03
-2.382932130587631439e-02
7.828036139709467975e-03
4.377637532434539361e-03
-6.918178757951866376e-02
5.441708383053481257e-02
1.688947628263862688e-01
-4.499372135395814792e-02
0.000000000000000000e+00
-6.500368433673285595e-02
-1.425436034338571356e-01
-2.376575206170058185e-01
7.612569978149602568e-02
4.172432595294273822e-02
1.873282351768463388e-02
-4.631072442779404774e-02
1.607522043354902563e-01
-2.983684723977446662e-01
2.874186327063655289e-01
2.697926354691753195e-02
1.278540269693543008e-01
-3.900394058122970409e-02
-1.160174020817830304e-01
3.312035773319580573e-02
2.668264665075429920e-01
3.840516469310047976e-01
-5.037907022726449691e-02
5.424444997091733001e-01
7.611792070356658557e-02
-2.503957865884893774e-01
-9.224367746068674878e-02
-3.429784460450828742e-01
2.450212097206409534e-01
2.175614582219334292e-01
1.788529073021802862e-01
-2.669703016883009372e-01
-1.867812852475238539e-01
1.133968472726266247e-01
1.355298803727196869e-02
1.632986661601110445e-01
5.186160090936773326e-01
5.175373148551173919e-02
-3.915180134122141914e-02
3.026413596907208056e-02
-2.282896105425731917e-02
6.657678966992951197e-03
2.382084910180806182e-03
6.770727657062529381e-02
-2.059772846779056032e-01
2.504240598178074650e-01
1.530592592908831262e-01
1.607847580723321262e-02
6.310771297805538305e-02
-1.126859098751800820e-01
-1.636692510333611073e-01
-1.560195614254427932e-01
2.154217744748174734e-01
-8.983459271327728923e-02
9.615043098211890904e-02
-9.679079216265208674e-02
0.000000000000000000e+00
-1.681704657185136356e-02
9.901375556194356997e-02
-7.273306152013804537e-02
-4.355625118322752065e-02
-1.842990012509406472e-01
3.588089944132352715e-02
-3.827329853069473542e-02
7.923887044298852378e-02
1.492636097725279776e-01
-8.251175855029983797e-02
-4.069476722345843900e-01
-1.089071996074219006e-01
-1.452830576999082635e-01
1.214412373275723378e-01
5.083394542493396839e-01
3.233993670902730044e-01
1.121620387367007338e-01
-5.177659134543745045e-01
7.384892961524779087e-02
-2.860751508499754792e-01
6.071140841276976285e-01
9.043470003171816263e-01
-1.153442204734545229e-01
-2.359597898196987842e-01
5.583686712432068822e-01
3.541224344949298608e-01
5.072341255603786125e-01
2.778796419007592000e-01
8.110314047972989604e-01
9.297745116351049943e-02
2.713097901150837155e-01
1.012859959848076696e-01
-1.986552367950210896e-01
1.004671427682970741e-01
8.599653455862016349e-02
-2.825268559480829111e-01
5.472313877439445584e-02
-1.397790453792046028e-01
2.162784673270383706e-01
1.826000473113181810e-01
-3.903312144609651091e-02
1.228335201509885843e+00
1.714836441872558126e-01
-1.055525804574486970e-01
-2.593625624787646022e-01
-8.446394647276816992e-02
1.116502103112659711e-01
1.094580053344305748e+00
-1.627067903575122598e-01
1.269638244315311471e-01
6.267577817108249683e-02
7.074607581212639766e-03
0.000000000000000000e+00
1.610263780789810584e+00
-2.012056775613227100e-01
-1.103921591348405312e-01
-3.448426467262082351e-01
1.483026009652812505e-01
-3.517172426479367453e-01
2.034897957310435768e+00
-7.029773064391688087e-02
1.979366053368037531e-02
-7.808151210289031585e-01
-2.134466709781871752e-01
9.582014804803865027e-02
8.071764836948570609e-01
9.107360150100165530e-01
1.556610551734674552e-01
3.749820275621831289e-01
5.227907849746361757e-06
-4.398647387942936082e-01
5.257264635813426734e-01
2.765155399262296254e-01
7.293281315984204705e-01
3.958284591689000820e-01
2.427807294902090129e-01
3.303104554072561205e-01
1.153447867084611278e-01
5.864336977830748865e-02
1.211578261041249549e+00
-3.616174208139850688e-01
7.711137844691808019e-02
2.601837248628766197e+00
1.863334285493097597e-01
3.390491007169153109e-02
2.046003340604636567e-01
-4.860964556836291223e-02
5.531182490943196972e-02
2.275320303931457067e-01
-6.514456455585739825e-01
3.265248116531355160e-01
4.987080300895292695e-02
2.075833390898096931e-01
2.284168982945361179e-02
1.925662067752881068e+00
8.988821085568159397e-01
3.075553400830023931e-01
8.126792087290004574e-01
2.630327534297444148e-01
6.292173710937987163e-01
-2.022556729185195218e-02
3.748269739198769462e-02
-3.741803985600860444e-02
2.860686647339363287e-01
2.222037012348929141e-01
-8.749689803522454623e-01
0.000000000000000000e+00
-7.141055595964994618e-01
1.813937608348961394e-01
3.055843682814788353e-01
-4.727035942880183916e-01
6.143448585774992365e-02
-9.632699383823158934e-01
1.858207014760704379e-01
-9.091136899765600576e-01
-3.421580051973524550e-02
-2.278503893546908465e-01
-2.148723261257206585e-01
-2.505072438985066485e-01
1.383829236669994189e-01
8.460919202104060233e-01
1.294913827170911746e+00
1.410183190933718578e+00
-9.551385127973915923e-01
1.173657366262768509e+00
-8.547129177367527308e-01
1.572641173004340809e+00
1.953571955843685037e+00
7.985378519116598239e-01
-4.005924286062984181e-03
7.709444216651235582e-01
8.320167574579793168e-01
-2.340040239652923793e-01
-4.143042006603048777e-01
8.063753786429076476e-01
4.406658877335068780e+00
1.953319063683778001e-01
-1.795209734690577513e-02
2.917003456528539651e-01
-2.137814293470532145e-01
-3.082566708265623845e-01
1.034192343795977020e+00
-5.670872700177217451e-01
2.764081028966297593e-02
-1.344627112567227945e-01
-1.733408317070203319e-01
-2.408458663357643526e-01
-2.869737794462135505e-01
1.808265255732312005e+00
2.443597732590829241e-01
-6.428285098612890325e-02
4.668432116265988641e-02
-6.278139330654916063e-03
2.086015307059137514e-01
2.026078960063364132e-02
-6.518068551165597801e-01
5.441167600383682856e-01
-3.092037807132523297e-01
2.423485865663998762e-01
-2.032818592746969688e-01
3.358913358663150883e-01
0.000000000000000000e+00
-1.570575728603523791e-01
2.521403386914483069e-01
-5.444782186384686251e-02
-8.662941892537816269e-02
-2.980277419006606698e-01
-4.870589708321661493e-01
1.099377751083344956e-01
-8.884363644161202833e-02
-7.248959983010849935e-03
1.324636399353627259e-01
-4.019929050221398015e-01
-9.875935645139953534e-02
-1.164039760485127833e-01
2.599173564013874116e-01
3.576812077030319670e-01
2.218499458398807966e-02
5.346522423282921155e-01
-5.354179586841889549e-01
-5.959303653158205122e-02
4.993822695442583504e-01
4.461040827316311019e-01
4.222106566091036739e-01
-2.672539446396468010e-01
4.888742576355212255e-02
7.032139806952812933e-01
1.204063987965603433e-02
4.053885794248886509e-01
4.994683756913265160e-01
1.030532443135249165e-01
-1.648984121569508632e-01
2.240163591752976080e-01
-7.430204470587526561e-03
5.280422422536177468e-02
8.743988016369598493e-02
5.518999540818178562e-02
-4.293290426412311733e-01
6.006923664220125136e-01
-1.778237641344540265e-01
1.470315437285179827e-01
-1.281513044473539878e-02
-2.481129598673360512e-02
7.560661643356999528e-01
1.430953475439797618e-01
3.878842928880169016e-01
-3.879876060140231148e-02
1.924058949467278082e-02
2.711989515017759755e-01
-7.185723314699346206e-03
3.704225574744189897e-01
-6.595703771547400951e-01
-2.748398193096898007e-02
-1.460542605833908825e-01
-2.179378580651011033e-01
-1.027380851263763661e+00
3.170322360434671971e-01
0.000000000000000000e+00
-2.412827030123286531e-01
-1.235814165030954398e-01
4.582971733631597822e-01
-1.830801768740783486e-01
3.958893438173972101e-01
3.938029653320178347e-02
-3.273225494539062086e-01
-1.140515662421527354e-01
2.214738354399452547e-01
-2.284267566051886300e-01
-2.725772690556119704e-01
-1.554352532977898438e-01
-1.229822120173129502e-01
4.012643607974973881e-01
3.250006005068269421e-01
6.222496087785116536e-01
7.762034335420686659e-01
-6.501912422122636537e-01
-4.177648052965071690e-01
3.499165703017907969e-01
5.715789266117635714e-01
9.270951842897674489e-01
5.356683325238241755e-01
2.609444276736681556e-01
4.835687635883545443e-01
7.446694899750281316e-01
1.664023203871160650e+00
1.179750436180486139e-01
1.840752732310295403e-01
-4.401409786506828986e-02
1.653815135093504862e-01
1.092853913971476854e-01
2.381684916727287160e-01
3.058293530451178244e-01
-1.431970468093156423e+00
-6.598679192999199472e-01
-8.179836100204816718e-02
-2.577229388776140495e-01
2.761825443636934385e-01
2.969847437547937230e-02
-1.753584134961558641e-02
2.056793710533963704e-01
-1.465220192344505734e-01
2.895893448348840216e-01
-5.870091115899695247e-03
-1.830114825487979408e-02
9.930581237531839467e-02
1.916720078814558026e-01
2.864956188602577059e-01
-3.475799425319745506e-01
1.056043448293606940e-01
2.342866433009322957e-01
1.884275710656907465e-02
2.476909200006026102e-01
-5.027797600030635694e-01
-1.640879676076257565e-01
0.000000000000000000e+00
-8.852340810071306076e-02
-1.957978218855661312e-01
3.857043512228345433e-02
4.066734099004393754e-01
1.389212059280294231e-01
-2.308640099739856233e-01
-3.197414813868403038e-02
-8.671163049464197803e-01
-1.449237982110736234e-01
4.748096310509712925e-01
-1.545173574020535234e-01
-7.619352984269348594e-01
-5.292765567531234616e-01
3.378799938437628686e-02
-6.403370654690354602e-01
-2.243946840362301132e-01
3.200400179155900582e-01
2.441684078313196560e-01
-3.194718073800993374e-01
-8.282109748765186241e-01
-6.701585089520528671e-02
6.558835260324510363e-01
-3.666556750663160780e-01
-1.204465908094759646e-01
-4.281704687636607165e-01
9.379458577536421426e-01
1.959899917121890323e-01
-6.288692798621597913e-01
1.381100588599170134e-02
4.764341161534508401e-02
-1.198466841244312242e-01
1.128107043247917468e-01
3.906747120841713161e-01
1.035849164924556032e+00
4.723765629111653097e-01
-2.595223871398584167e-03
4.872367320810266911e-01
-1.365129380627456146e-01
7.659460989585173407e-02
3.729320988124690817e-01
-1.829076687987558070e-01
-7.137584821070580565e-01
5.495442143244721328e-02
-2.641109431128986496e-02
-7.927483616499095623e-03
3.729716065325679175e-02
-6.362000589961055302e-03
2.016589071987069104e-01
-1.419814578119604764e-01
2.011423160003810995e-01
-3.385930874559433396e-02
8.380861515172113863e-02
-1.612409217259881400e-01
4.348228121305167670e-01
-1.912018807047044522e-01
-1.092509453846695622e-01
-4.666634943639718092e-01
0.000000000000000000e+00
-3.760784123005928570e-01
1.996363663113831233e-01
-3.622587373473767358e-01
-5.019543271660872191e-02
-5.434055224791158878e-01
-3.107535586653623616e-01
-1.718327854980451763e-01
9.886366908453224703e-03
1.326283960242767179e+00
1.869104079626510428e-01
-1.717919915518580044e-03
-8.049814958604505355e-01
1.343837366254704291e-01
-7.078877846032984866e-01
-4.968917192479687661e-01
1.174369931613546303e+00
4.950147752590611794e-01
-2.890240459243240689e-01
-8.276609740285834071e-01
-3.495203415035874617e-01
2.536828862473490820e-01
5.240534739720823509e-01
1.862913389175732681e-01
9.011265448215739493e-01
3.109455430198438952e-01
1.313362971103169963e-01
-2.123564411653380279e-01
1.719063398418900768e-01
-7.794444128169202013e-03
-4.181313217026012483e-03
-7.598180061190093482e-02
-2.943084660775575623e-01
1.671441331009755782e+00
6.292839464675258343e-01
2.162569961598705473e-02
-1.286619724657744324e-01
2.844983587824878590e-01
-2.402019808524347433e-01
1.996462807880121371e-01
-5.476067600838938759e-02
-5.385716164479634194e-02
-3.831145534951830300e-01
2.251810816833713091e-01
-3.537367689456055730e-02
-1.773310695282536431e-01
-1.659532382143064366e-01
-1.233102844238205681e-01
4.492859652734337850e-01
-1.151979228796743138e-01
-3.265463780286174678e-01
1.284541815052977487e-01
-1.578997953555547062e-01
-3.581915715802005407e-01
1.347688896027046335e+00
-5.298315935585032888e-01
-2.227515882807619418e-01
-6.808527862756020843e-01
-1.250169523767553914e-01
0.000000000000000000e+00
-1.608716028465598247e-01
2.343257262621912043e-02
-2.222239849423461588e-01
-4.467697262763276056e-01
-1.798700959118712528e-01
-1.580097919141328910e-01
7.121128132994472004e-01
5.948564647381662240e-01
5.316985358476581380e-01
8.530480217641294161e-01
-2.765010047550455208e-01
2.144017775378609658e-01
-4.113130143494372892e-01
1.594823584095395042e-01
7.731997572013158404e-01
2.659697275548186801e-01
-8.645351040271429532e-01
-5.457205129472867400e-01
-8.401003987406261420e-01
8.549698462292262269e-01
-4.455902806995450383e-01
5.502325766390530060e-01
3.859479559972240747e-04
1.460476421308883221e+00
2.830635664370586557e-01
-4.744944801070801604e-02
4.279087804744648171e-02
-3.522091050720402849e-01
-1.398102337081054691e-01
5.132720726634639949e-03
1.796272162103142445e-01
4.321991146961408625e-01
7.957330008278992728e-02
2.130444140691656607e-01
4.670567967927889003e-02
-7.352190433292565830e-01
2.554190393954271499e-01
-2.234452041184832316e-01
-2.957696084281061788e-01
3.352073976331706451e-01
-2.884735576830677051e-01
7.375920103439196351e-01
3.572072532435576764e-01
-6.106001469551015637e-01
2.654994201430671552e-01
-6.558671730177006998e-02
-2.393511415803901421e-01
1.136914348010729547e+00
-9.025002555328398568e-01
-2.739168210135571324e-01
3.516774888788815057e-01
-1.232733559107665050e-01
-2.588844745092923616e-01
-1.780409876217804888e+00
-7.817909326577578977e-01
-1.495133828403929499e-01
8.320976832977590165e-01
-1.105093167338076915e-01
-2.723706262569764447e-01
0.000000000000000000e+00
7.156652797857939730e-01
-1.906411913953313941e-01
-1.804880643413423261e-02
1.774496465815378066e-01
2.305479112623879112e-01
-3.930791803554102848e-01
2.632185272977631274e-01
7.006076757898265228e-01
9.042728860861425355e-01
6.380670180380405565e-01
-5.195133166070069197e-02
-8.850204668724709345e-01
-3.353099335741057119e-01
6.373016558715505209e-01
1.206271977725003719e+00
-1.682291284621819927e-01
1.789379101807927752e-01
7.912505509816014637e-01
-2.495284121581080039e-01
7.352341629798253564e-01
4.861023083856323007e-02
4.542602806464262621e-01
4.003472144640086050e+00
7.859722463145456250e-02
6.234783586992169099e-03
2.275270625413291226e-01
5.095483319861079385e-01
-1.654916080776132892e-01
-4.781193470235341469e-01
-6.140772834975443129e-01
2.175701524650555108e-01
-8.237347969432141925e-02
5.191426402811165630e-01
4.529120721459274912e-01
5.001089503125206726e-01
1.886784558737540363e-01
1.160049377186248981e-01
-1.917565458327415706e-01
7.512198474847835428e-01
4.798157499040420215e-02
5.182993894839692528e-01
8.562396680247224001e-01
4.123352825514258746e-01
3.911099954209838470e-01
6.571810776472615523e-02
-2.946109886695245650e-01
-1.098237079071973238e-01
4.659823896382937480e-01
-6.088387867383940333e-02
-4.932748059548829334e-01
-1.628162706469039600e-01
-3.315878161741021013e-01
2.095682552352265138e-01
-6.872750468323463036e-02
-5.773215033592661305e-01
-4.613779373206814971e-01
-4.583988147373775357e-01
-2.664654258901847927e-01
5.058808062009640949e-01
2.065464852052421585e-01
0.000000000000000000e+00
7.025843687063947074e-02
-5.289497337608126681e-01
-3.876900922953903650e-01
-1.924068367763491494e-01
-9.205526599588284564e-02
-7.078103248817103621e-01
-3.487765439511275600e-01
-4.726218852914937374e-01
4.342824492755140708e-01
-2.300452035959916763e-01
2.390117188613678501e-01
-1.088259597841387816e+00
5.375175069423424601e-01
-5.617665935625484330e-01
1.849848976062906381e-01
6.110337110441804720e-01
-1.836061675682317151e+00
-6.267630484514030709e-01
-8.023967498679182020e-01
-4.426516405691008349e-01
-3.405123193617303531e-03
-1.570508166285394580e+00
1.785907909657140358e-01
1.465710722099375363e-01
-2.753739576155276314e-01
-2.491734067463289848e-01
-2.908910388405399061e-01
-1.563874626350678365e-01
-4.778245486236327721e-01
-5.438799189656213784e-01
-2.074983105854969617e-02
-9.301462406821776885e-02
-3.107811428641700166e-02
-1.713930002064878999e-01
-2.211676972839254351e-01
-3.239121707451487753e-01
3.053040764729464569e-03
-7.314385752669844143e-01
-4.641564769595423190e-01
-3.473900551765537470e-01
3.818537682686660717e-01
-5.045687370305011743e-02
1.575691088262578532e-01
1.102887302511723899e-01
-5.567764688754076041e-02
7.290574528872173499e-02
-3.149960168405778471e-02
2.129661026694419645e-01
1.959490447219342790e-01
-3.217602359557282243e-01
-1.565165499499421853e-01
2.891499342337839826e-02
5.105542295900125649e-02
1.123840729828337430e-02
8.634734865659329239e-01
-7.228606719267621772e-01
-5.165459554128348785e-01
-3.085790107075239153e-01
2.926789222299818749e-01
1.537074919968431895e-02
-4.057998795047131589e-03
0.000000000000000000e+00
-5.268122343750657466e-01
1.268485289936822132e-03
9.076485981746339193e-03
-3.419055851907311649e-01
1.796022327439983912e-01
-4.021179122528901750e-01
-1.567704024749765890e-01
1.812149854914217595e-01
-4.110937390910444633e-01
-1.912774392458835848e-01
6.395510037002548609e-01
-9.438267032710354609e-01
-8.369643988615875774e-01
-7.166579053921282583e-01
-1.597201734626861880e-01
-4.594581123629389308e-01
-1.388741691839631420e-01
-3.272445009930810000e-01
-1.764369658501289684e-01
8.586992302876636507e-02
-4.840751491052988631e-01
3.775945013798159278e-01
4.546224249273423529e-02
-8.801106083445936479e-02
5.026899133837498847e-03
-1.156218164935905301e-03
-1.243007862901352178e-01
-6.796827013829588593e-02
-8.919992206790996470e-01
-1.947957868974830864e-01
-3.400864786778331345e-02
-1.551781400333705589e-02
5.612667441783438793e-01
4.321341541446287460e-01
1.347249658706373664e-02
-7.745724173825947467e-01
-3.048297545253542684e-01
2.177365282391957937e-02
4.215180587812564857e-05
7.725177402412183314e-01
-1.635251579171667635e-02
-1.063649591578278431e+00
9.064479145035012064e-02
4.247346372292044592e-01
-1.411624875889390951e-01
-1.250750890712948316e-01
6.145498276131640403e-02
1.950977236935959314e-01
6.041288810924292374e-01
6.840011102044717128e-02
-2.288493781296155605e-01
-4.346973984263645917e-03
1.828383372861174527e-01
1.275206363837215751e-01
-1.976160465252575771e-01
2.762480042108790834e-01
-7.032327344390348900e-01
-4.842210813545461123e-02
-5.300735326686440915e-03
4.121532148454946087e-01
-4.722568847265856129e-01
3.052157306338925125e-01
0.000000000000000000e+00
-3.469309448423092967e-01
4.549151929829799434e-01
-1.061646976111694896e+00
1.128774905222061031e+00
-9.905065025452165495e-01
-1.604740084333380112e+00
-4.008137180356619589e-01
-2.563798891001634606e-01
3.880485537583925892e-01
-6.270389768262289998e-01
3.071990236456957901e-01
-1.119922291938377779e+00
-8.515131354923127782e-01
-7.369515828528565571e-01
-2.093032909211988979e-01
-5.667781493746935073e-01
-6.471013761513221274e-01
-6.074792798927038939e-01
-7.957376897806976990e-01
-1.267698590026928862e-01
2.581507469068685112e-01
-4.664613062661117637e-01
3.674985156931176444e-01
-8.396653069329276797e-02
-4.341728609909108194e-02
1.632590514702575990e-01
-2.606088986991416667e-01
2.597714583310275493e-01
5.647601354362347115e-01
-8.748326917340210063e-02
-7.704971578508639993e-03
-4.967403010415457620e-01
3.267350744830282983e-01
3.637388055244076268e-01
1.646229453580291130e-02
-3.018837157483892364e-01
3.767444873519396054e-02
-5.749944511648009682e-01
2.510631585114914688e-01
5.940715936639421324e-01
8.038336892321843452e-01
-1.868740909168999487e+00
2.029893028744843286e-01
6.445745523113631525e-02
2.061353378297448372e-02
2.033040247884892321e-02
-1.801501121557823326e-01
1.773009901217300066e-01
9.741089328570200212e-03
-2.089540034004319924e-01
2.357522744929391526e-02
-9.523206290072931679e-02
-1.306133291091356174e-01
4.069041354630284490e-01
1.673232760247632678e-01
1.141449047729120592e-01
-1.205271327522617203e-01
-1.456061914568229365e-01
-1.116251322090674597e-01
-1.494877281909383071e-01
2.244789066119615428e-01
-1.654577347118726671e-01
6.228304972029166664e-02
0.000000000000000000e+00
-7.583392091493379450e-01
8.430475766809601267e-04
-3.886881395847089915e-01
-3.160580801246360982e-01
-7.357631325072853112e-01
-4.209381555791887330e-01
4.292897510934267080e-01
-1.781360829340869201e-01
5.171461161245913263e-02
-1.691529385196377078e+00
-1.154949369528362357e+00
-6.743494803642344770e-01
-1.242137464710449668e-01
-6.687810020410934753e-01
-7.612370397363265040e-01
-5.425341157079036081e-02
-8.214283385652201286e-01
-2.895753711904838767e-01
-1.297320105811580471e-01
2.012983353524031849e-01
6.424649733962761733e-02
-1.098061529366481937e-01
3.394897790560492956e-02
3.875025572001146446e-02
-6.295819971566517514e-01
-1.481577110421945787e-01
1.241947167868713009e-01
7.479175710595967197e-02
-7.573696646494051943e-02
-1.920867203741545570e-02
1.445908916969947389e-01
-9.605295285718513931e-02
-1.415662597123712729e-01
3.079406699287342564e-01
-2.036174118835053504e-01
-2.607952487551671861e-01
-2.683889171278209043e-02
3.974229333952218335e-01
-8.343056078867613912e-02
5.551914120303825806e-01
6.450710599579700943e-02
-1.971239797527293502e+00
3.538431242020576573e-01
8.348994266910281237e-02
-1.590415244196678735e-01
-1.266225236856203806e-01
-1.648587489721260180e-01
5.130688771273805848e-01
2.175748696688613038e-01
-1.680647115621372936e-02
-1.625747063898488887e-02
-7.504382985453013355e-02
-1.353707752452888158e-01
9.565574637879711295e-01
-5.971064286298327639e-01
-8.479824616167291884e-01
-9.307562287996106187e-01
-2.260591697191875749e-01
-1.475403517440268431e+00
2.311531629309155900e+00
-2.585729459745446657e-01
-8.368848515499436314e-01
-2.051748006716605788e-01
4.578747743034348311e-02
0.000000000000000000e+00
-1.518891676862434981e-01
-3.572904343528258697e-01
-1.112608906508929206e-02
-2.984160344582369451e-01
-7.193886629850105852e-01
-2.004886132803530563e-01
3.333635110812237512e-01
1.758453112661015616e-01
-1.095004629218358838e+00
-1.784652671048311129e-02
7.870001589489218630e-02
-4.547693882673850552e-01
-1.250136611467514425e-01
-8.496688981953222364e-02
-1.297189652171767404e+00
-8.246778545624368073e-01
-6.666076615653679927e-01
-3.006345560197167324e-02
2.516712836050745139e-01
-7.327508424871136128e-02
2.820412309523882000e-01
-3.063048374065702184e-01
1.802292862321657752e-01
-2.829116801218707344e-01
-1.310921214515149702e-01
1.991682540911235144e-01
2.789254824830796342e-01
2.450663620597947345e-01
-6.911233591649675045e-02
-3.476992190830494600e-01
7.451839742319453508e-02
2.771101312263795080e-01
3.738250746542051695e-01
-2.670763967357450697e-01
-2.060556606031771487e-02
-2.045063866790948204e+00
7.979481858304434683e-01
-7.494339013801444571e-02
-1.876607235235815685e-01
4.106617914037307138e-01
-1.811025698491257330e-01
-5.661096929243293330e-01
5.710368207123956985e-01
2.282684688966661879e-01
-7.842396845568568031e-02
-4.756734020003908908e-02
4.367413068050189917e-01
7.773007706585359777e-01
1.744630719946617947e-01
1.091935452086222891e-01
2.250494601774378003e-02
-1.024024962790808652e-01
-1.873309272452521324e-01
-1.152094604263254718e+00
-3.119188248868266511e-01
1.780696428787726104e-01
-1.281887481503384274e-01
-2.682707670832414348e-01
-4.790138949757714038e-01
-1.628557653286233586e+00
1.427906522261702671e-01
-1.044730112444328674e-01
2.024803289628335501e-01
-2.834540738207024790e-01
1.007762977901647677e-01
0.000000000000000000e+00
2.600373644066958922e-01
4.519932556520655370e-02
8.277036565491792119e-01
-4.771975192561248025e-01
-4.895606493931230208e-02
-9.780606632317417892e-01
-4.536113935278905385e-01
-3.357280456478698438e-01
6.796519316020649404e-01
1.058158466320220925e-01
1.769871503770801269e-01
9.076966371291319557e-01
-8.082449642250073563e-01
-8.040954710666482486e-01
-1.621241928142597377e+00
1.654726201257865625e-01
5.911954529573117956e-01
2.088268819550454236e-01
-3.223098845759679587e-02
-6.527745929605265063e-02
1.015017311949834022e-02
3.612590019176672995e-02
-2.565489708505925281e-01
-8.597961749648541652e-02
6.029952314970377092e-01
2.252390869412943530e-01
5.639228919748174446e-02
-1.337172767932590101e-01
2.134374892715858868e-02
-1.666633130983031230e-01
8.540822938916378670e-02
-6.921605714439096890e-02
-2.015177854242235778e-01
6.109626632585799660e-02
4.783091247353489783e-01
-1.019280011676659159e+00
-3.189593306773236270e-01
-1.072100402155229809e-01
-6.441551045092283045e-01
-4.553295875001710583e-03
4.012635524804945009e-01
-4.805073493459626199e-01
-8.074138947953747314e-01
-1.037412569935896256e+00
-1.417875195416939405e-01
3.588939639493673450e-01
4.192789659537066727e-01
-1.968875803558549853e+00
8.747654648812633882e-01
1.604064974215518302e-01
3.658007150699282839e-01
5.358177121821514621e-01
-3.671140198182386294e-02
2.623513992423691654e-01
-5.091386234581262160e-01
1.849496284197888474e-01
-1.477512245425247062e-01
4.461709205720001958e-01
3.574256842776139531e-01
4.631903635159602683e-01
-1.733243722045917146e+00
-3.134907300615427661e-01
1.041431636881139600e+00
4.137163123994924696e-01
-4.742435658250526709e-01
-3.582735289568315662e-01
0.000000000000000000e+00
-1.843537582542325248e+00
-1.135606974417357362e+00
1.799407540099545733e-02
-1.046370282078226167e-02
9.889205920070140987e-01
-2.829885737789673339e+00
-2.568160096008845761e-01
-4.175745235687866597e-01
-4.701503016550349634e-01
1.065917656528311941e+00
1.312152777092318479e+00
-3.665246520843808420e-01
-3.433286558370685637e-01
-5.645190796244871079e-01
5.709996675771622510e-01
-1.235016615317342109e-01
5.764484485381909940e-01
-6.474792760106108380e-01
1.036139506513869657e+00
9.996303311949173986e-01
1.092113867880602163e+00
1.586900462563298753e+00
1.278465233463212503e+00
4.692995969315936766e-01
-4.854422795949381308e-01
-4.166870881608968763e-02
3.958846789377581388e-01
4.944195993797021460e-01
1.229100292315410847e+00
-6.926535157131660236e-01
-1.907405339304065611e-02
8.000871226928757407e-01
8.318771546147413209e-01
2.425792275132253317e-01
9.760926146693979510e-02
-1.417575298339044665e-01
2.310679843868839178e-01
1.021019197217607255e+00
1.818676494438308922e+00
6.190765107125436595e-01
4.127001518277267911e-01
-6.030812237374454376e-01
1.606786667909359256e-01
2.692891710507716030e-01
-3.148053131388375836e-01
-9.016596150652980701e-02
1.245357486248747508e-01
-4.975002470601421756e-01
3.025851829548373284e-01
1.346730906975064646e-01
1.119506067273679482e-02
-1.489199238013082793e-01
-5.197821779697130440e-01
-1.345125476149171551e-01
3.846617124235064966e-01
7.971964593263408672e-03
-1.708454260856517859e-01
-2.232915493131279183e-01
8.914385850847852399e-01
2.239311114516428503e-01
6.287733032485351981e-01
-4.327697918825649803e-01
2.127388249610092930e-01
-3.513556959721544359e-01
2.924517030369386816e-01
-1.458512147130687220e-01
-2.897211043746649839e+00
0.000000000000000000e+00
-8.641666015116583610e-01
6.039933437339608524e-01
-6.987690466970575276e-01
6.074642444334132918e-02
-7.371902774318614404e-02
-1.412562043443179594e+00
-1.482544067614665062e+00
2.500296071392325570e-01
1.730658311826819284e-01
-4.188030925809001215e-02
-2.845969149433943968e-01
-2.901372536307513794e-01
-1.867344012706546874e-01
-3.859044236420585694e-01
-1.153630163100009876e+00
2.685516057073779606e-01
-2.250492067543188590e-01
-2.537190446510689257e-01
-2.204471633371700434e-01
4.149974216531108206e-01
2.982022951268257227e-01
5.448605899313496703e-01
-7.522768873650930166e-01
-5.673632915289268386e-01
-4.038319418335879485e-01
1.619888601009430162e-01
1.346183688486741081e+00
5.451912911815707252e-01
7.122928581628051870e-02
-7.004315099741365014e-01
-4.180484000129763844e-01
4.033642513422553422e-01
9.529847839354503858e-01
1.014362094686680482e+00
5.670338289255779651e-01
-4.260840572194511400e-01
5.085033968790724640e-02
-1.682923408549349409e-01
1.259193498823097057e+00
4.129821757276228023e-01
-1.917877699305082340e+00
-1.040972927277984850e+00
1.478915231475823600e-01
6.480676653276964405e-01
-6.667034977170108179e-02
-1.711286228616075711e-01
-1.007912183246729709e-01
8.067648506619102822e-01
2.377436840979682275e-01
-1.113721391232893321e-01
-2.210379901009300596e-01
-1.530338158308086616e-01
4.047324181734281434e-01
2.866006103722474330e-01
2.471751606375059973e-01
-3.076463253706000489e-01
-2.247931640466333536e-01
-6.107140659133462046e-01
3.556713746928215070e-01
-7.807702569451369090e-01
-3.636857146366304638e-01
-1.986227495993743708e-01
-2.064323613366994437e+00
-6.374989305444542786e-01
-7.330666171757141969e-01
-3.138553675031995893e-01
-2.069216686650959147e+00
-1.023926459428873281e+00
0.000000000000000000e+00
-7.207045769787097100e-01
-1.351667708913238730e+00
8.295401658893954977e-01
-8.202163508792778002e-01
-8.021294388595654468e-01
-3.534173356474819561e-01
-1.550778924105470080e-01
2.041358919475330103e-01
5.333934853953504751e-01
-2.569742701644425198e-01
-4.716519459660509228e-01
-1.927917503672794408e-01
-9.018865121327527268e-01
-1.746950605076669438e+00
3.588012073193220797e-01
-3.103573143654715372e-01
-3.651682708882266759e-01
1.309509142603104137e-01
-6.021823282481286038e-02
1.761808117234542059e-01
2.588991687625409877e-01
-6.362144147079438206e-01
-2.391444191272746045e-01
-1.500704688727678981e-02
-5.229117308408381959e-02
1.335529155143137803e-01
1.778186398956397019e-01
-2.392326652947120991e-01
4.679451061992805361e-01
-7.142016293768321811e-01
-2.241277330411565460e-01
2.719292047307384289e-02
2.773250408216542118e-01
9.242287826942896523e-02
5.663537917164377378e-01
-1.639020394740629272e-01
-2.525907689122013355e-01
3.485396169493564789e-01
-6.476391958530586246e-01
2.719205440069739632e-01
-6.039535848200516810e-01
-1.980155246585160844e+00
6.345603477777936874e-01
9.997093642597151275e-01
-5.368435617944621319e-01
-1.906721688313000873e-01
-2.272109418953158211e-01
9.127565328100736286e-01
5.769190602554147285e-01
4.105325333179805636e-01
-1.190614768078085972e-01
1.537151568570709337e-01
8.267013731009674737e-01
9.528028250612922967e-02
-3.180311075676909294e-01
-1.932188021491916263e-01
-7.340388365108283519e-01
-4.828641008278040658e-01
-1.743762658899515872e-01
9.509017700134427681e-03
-5.855009628365713814e-01
-8.509377834529897600e-01
-1.199701196329648667e+00
-3.820268261561601819e-01
-4.170563006741665468e-01
6.041279683364193520e-01
-7.306986019801911536e-02
-5.286213065668109445e-01
-4.741578095979921414e-01
0.000000000000000000e+00
-2.115899188914626805e+00
-5.989856752655630112e-01
-4.773350901189101769e-01
4.974174504951395237e-01
-9.004275185692490746e-01
2.312912322895621653e-01
-2.599719492255615272e+00
-1.260575958175986555e+00
-1.979379773413718901e-01
-1.399906780483966440e+00
-3.004362617260070145e-01
-1.045837114676420043e+00
-1.087911309154710349e+00
6.319424151241999077e-01
-5.294640391209716190e-01
6.204470597154347900e-01
-2.665929190459597753e-01
-2.943220651192819948e-01
-1.340694467599498271e-02
1.876532270083159093e-01
8.822080369951198486e-01
-3.764964585374573347e-01
2.648689380140725191e-01
-1.408530161708211048e-01
-2.598384021903597102e-02
-1.024685205032535157e-01
-1.541438347706941547e-01
-1.705768273238156274e-01
-1.830413390554318509e-01
-4.576656183994213811e-01
4.345262518047708911e-01
1.556511860032379735e+00
-3.046351220452706565e-01
2.035383777208920053e-01
7.739933709425466102e-01
-3.579149710681965302e-01
1.305342473557558725e+00
4.686289343107323813e-01
8.016812739356672379e-01
1.395337004289371463e-01
-2.279026936474538023e-01
-1.562260134290323732e+00
6.838967386601301213e-01
8.475817434193234912e-02
-4.591932292936128090e-02
-2.064671804261821175e-01
-4.108187552985883562e-01
1.063065597055373734e+00
8.316032834126418916e-02
-3.935105558009001081e-01
3.716835775281508020e-02
-4.092170019562844652e-01
-1.627574251683948647e-01
8.521331520781673385e-02
-8.849529657144024064e-01
4.713105165628881515e-02
-1.899513467572610803e-01
-4.471766178159862493e-02
-1.697536379679139562e-01
1.630396121384898034e-01
-6.505531278198220524e-02
6.509876910930545435e-02
-2.108560929043466203e-01
-1.665258334270533491e-01
-2.919127658615506826e-01
9.549939298204652705e-01
3.528114614472764865e-01
-2.163315818698994045e-02
4.782567437354997564e-01
-1.361396611403249857e+00
0.000000000000000000e+00
-1.458737670023115163e+00
-5.328290495264250692e-01
-2.025200698286900025e-01
-1.532662206391487425e-01
8.828736273137955948e-01
-1.117449866526492475e+00
-1.383998155541120045e+00
-1.808823401685030197e-01
-4.817636855045959177e-01
-6.173775193114015014e-01
-9.234562645750415966e-01
-4.224363522782210167e-01
2.279144724067116712e-01
6.097077033666217782e-02
3.503932322274296296e-01
-2.391276412949993602e-01
1.628108987683178077e-01
-2.997343159902651211e-01
-2.060814237168518415e-01
7.658165440246658129e-01
1.516582025231662800e-01
7.816936369262212914e-01
1.478347141062080761e-01
-3.832350431125463031e-01
-3.171476885877279051e-01
8.621961356415593081e-02
-1.818595767745780356e-01
5.361206425914027962e-01
1.693564349894692289e-01
3.931449260999850259e-01
3.473387486217784370e-01
3.182534685331369628e-01
-6.320203743729854162e-01
-4.478642243286891644e-01
-4.123575807992542752e-01
-8.352388742060805615e-01
5.736779366893143273e-01
7.643383672098805759e-01
1.107012609579461460e+00
-4.534230955291437271e-01
-8.228123042241515250e-01
-1.522935851462466683e+00
3.160178777654350513e-01
-1.635658514095420790e-01
-4.892350718995679970e-01
-5.255746081170702411e-01
-1.112345321288147115e+00
8.484125733044672879e-01
5.737158736776819257e-02
4.707659386394960621e-01
8.978808115060477046e-02
-2.883176148682155548e-01
-5.808194992303730153e-01
-6.228631520905270058e-01
7.011425740593116851e-01
3.713637197021488201e-01
2.501027423271154904e-01
4.088671233756957513e-01
-1.050948961839771378e+00
-1.595171225863913467e+00
7.626717396735810395e-01
2.736963294124737378e-01
3.644693876694132806e-01
6.153744398449710884e-01
-1.029222632529398079e-01
-6.760793791004892084e-01
8.340364285211492312e-01
6.742135883543282082e-01
7.365904237074233363e-01
-4.151276852284400132e-01
2.894536112614492507e-01
0.000000000000000000e+00
2.291770200757064363e-02
-1.388119491459458343e+00
-4.275956889923462345e-01
1.074882298453119001e+00
-7.839603855237612384e-01
-1.007626604995067954e+00
-1.144331558574561925e+00
2.004144836135103580e-01
-2.760355167346083549e-01
-9.491592637986126513e-02
2.556204345201043004e-01
4.117132032247885487e-01
-4.076135327671782660e-01
3.161148672724888309e-01
3.901729062426574912e-01
9.030661780838997177e-02
-9.244860910089980344e-01
-2.501690220826403577e-01
-2.604687248563801738e-01
2.828775106596276845e-01
7.327220152001941988e-01
1.531668408026380934e-01
2.973959338097657001e-01
-5.490793006453327241e-01
3.151058116326088121e-01
1.471639441019852723e-01
3.412996457570059983e-01
1.518943797253152206e-01
-7.162051189124069017e-02
-2.618557889903451175e-01
5.929412851608277801e-01
6.057891777774370157e-01
3.041980130981287167e-01
4.169317703012914711e-01
-7.040433476066224605e-01
-3.687485273791865636e-01
-4.737138906875497657e-01
-1.128625977092183458e-01
-8.892968953798608897e-03
-2.335531195420550432e-01
-2.239486159551342670e+00
-9.572864232218339930e-01
-5.595031217280331190e-03
-4.448765909160402598e-01
6.030743616450805478e-01
8.933592234160679935e-01
2.037041035727224503e-01
-4.581871166813625607e+00
1.163490478738869127e+00
-6.537019498546559060e-02
1.170705829607027043e-01
6.451326104637834513e-01
-3.677049989449507894e-01
1.152252244932246983e+00
1.734780607923187778e+00
4.549891951469571816e-01
1.219581634390979108e+00
5.004319365779816842e-01
1.312234833617262064e-01
-2.355576733743373896e-01
1.452046197914157011e+00
9.012076684405204707e-01
7.588331777029025949e-01
5.289871848565544932e-01
2.382922910689900808e-01
-1.061331135556988103e+00
-3.647100110466773959e+00
1.258918501824872527e+00
9.722451346096282476e-01
1.146501893483631296e+00
4.137216216043098083e-01
1.357494117139144363e+00
0.000000000000000000e+00
-2.938468123248223485e+00
1.046429961696498490e+00
9.387397306563748101e-02
2.838059554571523146e-01
2.042781864430125882e+00
-7.104143523163325424e-01
4.725841739233401229e-01
3.843768425941661016e-01
-1.579510043047551715e+00
-3.094852825857264733e+00
4.084909178494965931e-01
-1.497120567848453029e-02
-7.098199700139447288e-02
-1.180964483771050066e-01
-3.666075360803502936e-01
2.109396750164270196e-01
-1.545719474833241180e-01
-2.542655809314553483e-02
1.623378996850486644e-01
3.239150777301895712e-01
-8.286856038110310130e-02
-4.173150589316289572e-01
9.566208425977056340e-01
-1.925241409936601367e-01
1.982121731656611568e-02
-5.070873030543313620e-01
-3.696676235245500292e-02
-2.326674737076846189e-01
-6.604696207919331652e-01
-3.230593059520227572e-01
-2.089132857769054885e-01
-7.569901669986258685e-01
1.789776829360327504e-02
-5.452153895973751441e-01
1.642948638689391838e-01
-1.505230179839173177e+00
1.975658359636980888e-01
-6.803364248809654624e-01
-1.210150989788399967e+00
-6.245573789522700370e-01
-8.756772942258846948e-01
-1.373458872422237853e+00
-8.674455724842928817e-01
-4.796032396107096085e-01
6.945720815017777383e-01
1.917739911842783807e+00
1.072901562434226186e+00
-5.995362669436405945e-01
3.361278100971791249e-01
3.897757180075347438e-01
3.561631372996863498e-01
3.035150757096438112e-01
2.172623321003784580e-01
1.154282287016516806e+00
-9.653389583592876244e-01
-4.339050263675445218e-02
5.232679048471893246e-01
8.611468003342966915e-01
1.060792443529616103e+00
1.047725591358557029e+00
3.407784511551191220e-01
-2.118931916682319505e-01
-2.825391800577105039e-01
-4.946859992550128871e-01
3.691005005109123660e-01
-2.187998915592308802e-01
-3.294642642146047962e+00
-2.047286570947695061e+00
-3.940365960531695966e-01
4.253597675396203481e-01
-1.660506966934399420e-01
6.970496647079759134e-01
-3.263961418307428808e+00
0.000000000000000000e+00
1.064597660376584987e-01
-1.351589324825966942e+00
6.727538468746427913e-01
7.974439483625629377e-01
-1.528269096875043642e+00
-1.341531676810186757e-01
6.825471092387547234e-01
-7.295369919532922187e-02
-1.559096863519327192e+00
1.453791353142898979e+00
2.070088261206806113e-01
6.591166328298578292e-02
2.553758174559806471e-01
7.991775683531056051e-01
9.773236434345589085e-02
1.868255741974358175e+00
-6.340408951705658880e-02
2.838998042756228912e-01
2.918538957000390566e-01
1.138276089370329064e-01
9.528342653908358217e-01
9.305969846303852044e-01
5.904349249506251063e-01
2.410306162588788381e-01
-1.606179136332529234e-02
1.046804821970123145e-01
4.570554290010244158e-01
9.584466693914009405e-02
-5.214355608545219178e-01
-1.258516722631790374e+00
-3.004789148106603025e-01
1.234216862056389391e-01
1.448387717077848080e+00
2.659911577916312941e-01
-2.902500751530078804e-01
8.724980995826724373e-01
6.099139575687213544e-01
-4.687803223958726395e-01
1.009676501236761448e+00
-1.238758196246072085e+00
9.522479613299805745e-01
-1.016255362115712435e+00
-2.418337668002536536e-02
3.298333145351250439e-01
-5.571925280748982190e-02
4.053627129221506475e-01
1.026957171718595636e-02
1.049315010193477171e+00
-1.050841155527831583e-01
4.250189527054694105e-01
-2.241510962351447867e-01
3.633126855288902890e-01
8.612394682398375467e-01
7.366566897922115498e-01
-9.127623718088402338e-01
-5.336437244749709929e-01
-3.900713519440048294e-01
4.918000804127155567e-01
2.387936849308060216e-01
7.145716659037906204e-01
-4.647923308163469658e-01
4.520311523109267204e-01
-1.954085040462300915e+00
-9.507813451141471361e-01
-3.693031360656348072e-01
5.709977671961814494e-01
-2.163695014716034315e+00
-5.328816326094358846e-01
-2.488825870242053762e-01
-4.003463193092195449e-01
-8.065020560664103444e-01
-2.193991512697263391e-01
-1.215792435134196658e+00
-1.632105761656169607e+00
0.000000000000000000e+00
-1.045949186470466419e+00
-2.308706228772809954e-01
9.177846358926863291e-01
2.849614669357624502e-02
-1.511647142824248669e-01
-2.778576232843925631e-01
-4.387301543644032686e-01
-6.058174268031457643e-01
9.332489314010870007e-01
-7.851034918298531728e-01
6.220548545895840942e-01
9.867560677192052654e-02
-2.673272292108809234e-01
1.385866531856562611e+00
1.019461856032599201e+00
6.819958647338486557e-01
2.307335465624206772e-01
2.313319003365780502e-01
4.441263469012943915e-02
2.108692837426756062e-01
8.130652799844237943e-01
-1.563608473967492141e-01
7.682691629211894913e-02
-2.218666348734432692e-01
-3.868976464467995674e-02
6.282976946881710378e-02
5.125232323356816722e-02
-1.361777034517933860e+00
-7.033322660067771182e-01
-4.920757419328812554e-03
-4.666881816614986689e-01
2.194414559282757138e-01
-9.890475869745497806e-02
6.466568117122713233e-03
4.783947069532702989e-01
-2.060438852024887579e-01
2.777701304695097684e-01
3.662384833627923414e-02
-5.163630513874458705e-01
7.060862417654200085e-01
-1.329450989942033035e+00
-1.910906006025950843e+00
2.848123137971443897e-01
1.036137881017232393e-01
1.792854426495411879e-01
8.526852072008644923e-02
-2.698841312158122285e-01
2.186222358605375837e-01
5.589001789340641846e-01
-1.118367398366145599e-01
-1.136157894022261500e-01
-5.809984357235149777e-02
2.914586548718854919e-01
2.857517167499768473e-01
-2.930750749390559351e-01
4.809520929814923851e-01
-6.139940830306276354e-01
3.817428639607167024e-02
-4.035114716318314865e-01
-3.359341838829612570e-01
-5.464465908485830470e-01
-9.345178278858973231e-01
-4.598072740121617041e-01
-6.506804980149855089e-01
9.827550174567997177e-01
-4.713656956984397794e-01
2.053669926967026105e-01
4.845006509162071984e-01
2.668706304808539098e-01
-2.477585007031161357e+00
-1.167737080157689400e+00
-2.778462083199143784e+00
1.612987098732507341e-01
-1.077710715691156534e-01
-1.285634474083206191e+00
0.000000000000000000e+00
-2.180189769698372970e+00
-8.003588853136006653e-01
2.856773834404007228e-01
-6.414378062468952812e-01
3.160793533926164328e-02
-2.299348050206939109e-01
-5.044399224311829633e-01
4.817956112824288706e-01
-3.200315914009431717e-01
-8.964976974497214368e-02
-1.237884289877910493e-01
-4.354239582481000265e-02
-9.943990708519592769e-02
2.253582596416958128e-01
1.174326479800638756e+00
-4.127874539238984841e-02
-7.131420549314147761e-02
-2.914347105587117293e-01
1.309972721101384519e-01
1.185163923668610675e-01
-2.540348058350934135e-01
-4.005608981498949839e-01
-2.445900029498107031e-01
-2.986442458950193113e-01
9.306832121550777659e-01
1.253477570058738833e+00
-8.151355760435048392e-01
-1.124781109912852406e+00
-4.770765398390336975e-01
-6.888190327129231072e-01
2.807170641259678634e-01
4.822008237267830788e-01
-8.458184883830022205e-01
3.176210676533943594e-02
-6.690861230960172268e-01
-8.339223857729495260e-01
-2.461766910737846481e-01
-3.133010257144872718e-02
-1.300043024668915415e+00
-1.153109217551653742e+00
-9.296268856775049549e-01
-2.116087637946365341e+00
5.421431515564389958e-01
6.724241780717589156e-01
-6.900385855645502220e-02
-2.723893945234832636e-01
-7.400378518010303219e-02
1.304292458875183192e+00
4.516791102746847697e-01
1.439178635983832999e+00
2.180893776769430303e-01
-3.475098676306000445e-01
3.608734242653901525e-01
1.889175069576761179e-01
5.963970107072831262e-01
7.023471346678217264e-01
5.933625284443762027e-01
-1.625444716054305905e-01
9.103777117718159229e-02
-3.015893583183019699e-01
7.117121651465654897e-02
-4.984035229897557651e-01
-1.046606486344963359e-02
-6.422885637092545785e-01
3.749163611130171825e-01
4.462977203291748074e-01
7.967030888544502920e-01
-7.243142855693796012e-02
-9.646100338596924617e-01
-8.474483988405775436e-01
-1.148514280544353561e+00
-3.292218334076308039e+00
-1.247323492471545392e-01
-2.659849193317417315e-01
-2.630513404160618740e-01
-2.480801663452392170e+00
0.000000000000000000e+00
-1.419217227879044918e+00
-2.797983547499546808e-02
-6.553800719281406284e-01
2.719603816976869926e-01
1.846230187037347648e-01
-1.147628426134246427e+00
1.436318295153507174e+00
1.934936769146128055e-01
1.272718749311742004e-01
1.147166891220322699e-01
-2.146548172660478204e-01
-1.039975702884410103e+00
1.110080121515957946e-01
8.086621130873107299e-01
5.334408357218599628e-01
9.700811554278199189e-01
-2.286316189328184700e-01
4.037567630870511626e-01
-7.022548982407955664e-01
1.735378130318921963e-01
1.831512376999347436e-02
-2.444110858793790975e-01
-9.540564377195559498e-01
-5.888612343500220225e-01
1.225322804276694155e+00
8.080702043899563591e-01
1.497720607689656536e-01
6.281327798347884073e-02
-2.789739598067864090e-01
-2.070118260901902263e-01
1.100697889806729890e+00
-4.007913220402723464e-01
7.652590462648792280e-02
-8.480406609470835244e-01
-1.701684136059876229e+00
-7.231596735257060926e-01
1.764967440313380542e-01
-1.338417706888118008e+00
-3.118032534108671427e+00
-1.409712967835840214e+00
-1.958035600833317291e+00
-1.519144849958924626e+00
-2.261666244111754320e+00
-4.369098241215218503e-01
7.468940602935348894e-01
5.838712571630205739e-01
-5.785564689724331799e-01
1.088701070591392872e+00
-8.326231150569972650e-01
6.189685888662487256e-01
5.451222282068695080e-01
1.581052059587609859e-01
2.432921852222988124e-01
1.051101227478965783e-01
9.732182698949261024e-01
5.048871816095008569e-01
1.102234813190996476e+00
8.645476926007472640e-01
4.033310787015201293e-01
-1.349185551848007369e+00
-1.880143525081417327e-02
4.332625625574645922e-01
7.910178957562081781e-01
5.067749415790763212e-01
4.545970421604808021e-01
-1.246461902092415697e+00
1.885728299333323088e+00
2.001320318722052072e+00
6.005431838430105307e-01
1.048071163658734095e+00
-1.089665093120534500e+00
-2.689374028414943218e+00
9.155499971528918701e-01
2.263573377896182515e-01
-2.578340148737627915e-02
-1.997354710713697079e+00
-5.508225468255495194e+00
0.000000000000000000e+00
1.701214101714971783e-01
1.798632090421352636e+00
1.269721211447522036e+00
6.357652211012265742e-01
-1.505047221151405878e+00
1.226325417344858559e+00
2.056690030162180882e+00
1.644516864123177546e+00
5.581638074863751742e-01
2.564158930141685055e-01
-1.077751047355344216e+00
3.984744890356411995e-01
2.577081792047890563e+00
2.395020815684772708e-01
7.866152040680659541e-01
6.278163830603878948e-01
-9.886605060408119039e-01
-1.208969231644702713e+00
1.773155719637889538e+00
2.594406524417204318e-01
-5.404246411244985060e-01
-1.036931222261933572e+00
3.401126698897666834e-01
-1.486879261169713029e+00
2.478060757156212102e+00
5.367454607485432350e-01
-4.890734377542911293e-01
-2.165136747969661490e-01
-7.382303763483037962e-01
-6.650980549252474283e-01
-1.909806474005063981e+00
-3.660848339909025251e-01
-4.941515977120776726e-01
-1.187254566239884790e+00
-1.346538542933199689e-01
2.587473353617266714e+00
-1.777072556342495169e+00
-4.277913389941100597e+00
-2.177022667676908441e+00
1.007669548808934890e+00
2.258501039315603531e+00
1.818027791969953344e-01
-7.206905716159938639e-04
1.039005376146065196e-01
1.180268790750242103e-01
1.389596596960936126e-01
2.214068946956856132e-01
7.633167915053704622e-01
1.911634676008371614e-01
1.033542246983699231e+00
4.767192729793771622e-01
4.317872621837307023e-01
-4.222098996269453286e-01
1.135656589692480178e+00
8.417350635033150896e-02
4.343357927720167266e-01
3.430183757398799771e-02
2.161508881139303784e-01
-1.444191562782545513e-01
1.210375501763745892e-01
-2.063633323118099494e-01
-2.546087284418616647e-01
1.135558058189554825e-01
5.384669220207329854e-01
-4.851091260813879535e-01
2.825724300846192347e-02
7.626995057869484507e-01
-3.564109420559314345e-01
-7.238405152326982117e-01
-8.785119835243803132e-01
5.513198268497366827e-01
-4.703574260002574836e-01
-2.169473030477198527e+00
-7.529167733978141541e-01
2.231115301833589415e-01
-6.730877441749102408e-01
-1.435818863251918209e+00
-6.115642018002321878e-01
0.000000000000000000e+00
1.485656042642417091e-14
2.827038603224886946e-14
4.103384299022673466e-16
2.128667500764657161e-01
1.863522402546216705e+00
-4.145689435027418712e-01
-1.286014740674006340e+00
6.651036540760454363e-01
4.106501955070797627e-01
7.767361375769398224e-01
-1.471867942701881926e+00
2.216431708330904027e-01
7.848149165321086640e-01
-4.260730027851457047e-01
7.460892266312322274e-01
1.076318418804873334e+00
-2.259650153998507827e-01
3.396733998159294776e-01
-3.372950380398611614e-01
1.233625197646124189e-01
3.164551872697399237e-02
9.862350181089375445e-01
4.070250392954952168e-01
-3.902484972743921476e-01
-1.800751126160588245e-01
-6.709390527461304154e-01
-1.842758618380805347e-01
-1.873788262171519753e-02
-3.208745521089707148e-02
-2.715222462977138207e-01
-6.096433010495692084e-01
-3.538572527313753602e-01
6.602763770365217555e-01
-3.943845343777163670e-01
-7.827415214557863210e-02
3.438959725944004675e-01
-7.336347437438036634e-01
1.040018201578843532e-01
5.950112492376832263e-01
8.996849820396558839e-02
-2.829863571473992256e-01
3.110223190086851710e-14
2.730025636908206987e+00
1.074678817278826165e-01
-7.768452662763640770e-01
-3.869287905350123902e-01
2.279671602284649712e+00
1.712417174102969231e+00
8.415027535237650236e-01
-8.527398745807356351e-01
-5.838351315802134955e-01
-2.403625797755417903e-01
-5.576540658349519175e-01
-3.361640663978658905e-01
-1.450455593052193626e+00
8.957898323179330768e-02
1.055725514301513845e+00
7.338902516337661996e-01
-4.439151187295270473e-01
-1.101538892468742370e+00
-4.345798391986288034e-01
1.423859002023635523e-01
6.492715002737905472e-01
3.507395196965398809e-01
-4.344881886422954920e-01
-1.093766134347878172e+00
7.113069704530136650e-02
-7.356442987175210169e-01
-6.569420145842050918e-01
1.163972415835528434e-01
-2.296505276883454572e-01
2.174341837709234948e-01
6.908022511591518366e-01
-9.053598997355160050e-01
-2.665946451003762263e-01
-5.489605470640003260e-01
-7.189056349565106085e-01
-6.898241260642846706e-01
6.490918913436863014e-15
0.000000000000000000e+00
1.617039835377175040e-14
-1.804534299775492566e-14
-3.309569449347812498e+00
1.656714143885679391e+00
-9.901148372390200514e-01
7.084362744449614890e-01
7.736882193050592660e-01
1.442503878064281153e+00
1.135691514039029126e+00
1.410701048394677748e-01
-1.183904821685317632e-01
1.005441781030387283e+00
4.270994988329687714e-01
1.295797363819675141e+00
4.172472933512114679e-01
-2.393807154927136416e-01
-6.355006183898949113e-01
1.111260685978854301e+00
-4.126037198425543812e-02
-1.261610564159623138e-01
3.039477266993601545e-01
-1.036492901775183384e+00
-5.389041664962873623e-01
5.233588138510013588e-01
-1.235655686926912411e+00
3.295687076773232138e-01
-4.563529672179604257e-01
-1.254605901890092579e+00
-9.186219771578071347e-01
2.138215189659371795e-01
-5.190186098940443582e-01
-5.128610034636623682e-01
7.296922975798594835e-02
1.811310943726967826e-01
-2.801099079453542862e-01
-9.644349900219245653e-01
-5.205526345548936451e-01
7.114114027428979359e-01
-5.719283049260811547e-01
1.659020261877284519e-01
2.293210066294567319e-14
2.692068790125204809e-14
7.288240186011983868e-01
2.096807460158951475e-01
1.769134920315992496e-02
2.369630857041202243e-01
6.261267741658113062e-01
1.013026807797289486e+00
3.612163806312104763e-01
9.460216557432946094e-02
7.554929122358918780e-01
2.227350455292280706e-01
-8.179219020596644185e-01
5.234014760957133028e-01
3.260795305999717453e-01
9.228640578019293716e-01
6.564949104105782807e-01
5.865058059503239773e-01
-2.745530361151115595e-01
1.044664577017965536e-02
-2.085490374011997050e-01
1.045594976632149953e+00
1.553881315919510842e-01
1.350173909775894021e+00
-4.995853853232355424e-01
-3.218771800351213352e-01
-1.123237756432875351e-01
-3.852079622499918199e-01
6.400422592526874843e-02
-1.468517758385928573e+00
-9.133038243550632707e-02
-1.471162384235456422e+00
1.129829725643836380e-01
-1.696016737521965467e+00
-2.000191397874006682e+00
-8.778416585032765562e-01
-2.050295690603693988e+00
3.193842703243388592e-01
-3.029054784774677060e-14
-5.921929613352145535e-16
0.000000000000000000e+00
-1.452571396508206046e-14
1.669107494231729882e+00
1.935694089487087766e+00
-3.347725292558679233e-01
-3.247521699186428634e-01
8.474493178820172723e-01
6.709215683967367783e-01
-7.197803372450763959e-01
-7.831935650588413012e-01
-6.453781135552792980e-01
1.143180257944066192e+00
-1.414619980143559663e-01
9.726930096976821316e-01
3.194410788014442337e-01
2.226813791008963039e-01
4.060985498008602423e-01
-8.093934233321986582e-02
2.764052667120719398e-01
8.308262973828341169e-02
7.490473420120665748e-01
6.828220855119565558e-01
6.036336858983274434e-01
-2.157255927871727652e-02
-5.048517936307492793e-01
-3.457353839135180462e-01
2.427321272099995930e-01
-2.942227347555805284e-01
-3.721886389040119925e-01
-3.366838939309401701e-01
4.072021670797987269e-01
3.620431196762681769e-01
-5.290413385876436836e-01
-4.522330131019800525e-01
-1.944960737739488188e+00
-9.121786942085753358e-01
-2.096368107025380623e-01
5.531647564876505108e-01
-7.240383214565584424e-01
1.135023633641378371e+00
-1.441069485964903360e-15
-2.919886554766135510e-15
-3.857392183396344143e-14
2.307356112840309448e-01
-2.511673929127402616e-01
1.331779508268906564e-01
-5.732060879421302380e-02
6.864558276192844755e-01
1.412978991159054010e+00
3.061734537073678153e-01
2.148371614767345672e-01
7.587842882582716830e-02
2.226852017429664932e-01
4.775980161287321502e-01
-7.499510662647006221e-02
2.277757273590979570e-01
5.625536494998610859e-01
4.315383472493622419e-01
-1.285600740201248426e-01
-3.199303904790918307e-01
4.235682435614163827e-02
-4.487648374928062678e-01
9.597589578166239310e-02
1.468929771008212481e-01
-1.141790823099500390e-01
-4.056231160745443209e-01
-2.263915916217238700e-01
5.614429629443334901e-01
-5.087719487658366735e-02
-6.993110502607844392e-01
-5.583511139894987707e-01
5.202810537296615606e-02
-5.765647049826341797e-02
-9.724949949807074612e-01
2.014365930368053059e-01
-9.667378375077090302e-01
-1.313683680821672084e+00
-9.521952330474020565e-02
-1.476895686892761628e+00
-1.721589537602348983e-14
1.780287028918510634e-14
-1.006106309377678013e-14
0.000000000000000000e+00
1.095858837134604302e+00
2.135638027993168819e+00
1.801480256496332588e+00
9.167075280126150139e-01
3.958507164386794175e-01
6.856218041149544362e-01
1.032782611356724223e+00
9.086890066634231711e-02
1.633483317346634822e-01
7.207485757255142067e-01
-1.044781037230239296e+00
1.247944454407244330e-01
-1.783970040739932539e-01
5.828139201778230749e-01
1.563173440190094021e-01
1.122813814817736455e+00
-9.182689016424105954e-02
-3.170069529728619662e-02
-1.839847747824575330e-01
-7.418692662118685499e-01
1.024617465010631556e-01
-2.763555784402229598e-01
-1.202674246671704639e+00
-5.555338606048287886e-01
-4.053493640496171335e-01
-5.149687482716249765e-01
6.292129762995262166e-01
-1.466375607793012348e+00
-2.230151509999903359e-01
-1.363500101555788491e-01
-1.207909413153704370e-01
-8.357491662960058187e-01
-2.062307659336650278e+00
9.807608949572756973e-01
-3.480608308677945323e-02
5.519211070325040769e-01
-1.138636863568054158e+00
1.186967974558655659e+00
2.676747712370950715e-16
-3.298028516953552048e-15
-2.506350682562961658e-14
-3.234623680014334371e-14
0.000000000000000000e+00
0.000000000000000000e+00
0.000000000000000000e+00
0.000000000000000000e+00
0.000000000000000000e+00
0.000000000000000000e+00
0.000000000000000000e+00
0.000000000000000000e+00
0.000000000000000000e+00
0.000000000000000000e+00
0.000000000000000000e+00
0.000000000000000000e+00
0.000000000000000000e+00
0.000000000000000000e+00
0.000000000000000000e+00
0.000000000000000000e+00
0.000000000000000000e+00
0.000000000000000000e+00
0.000000000000000000e+00
0.000000000000000000e+00
0.000000000000000000e+00
0.000000000000000000e+00
0.000000000000000000e+00
0.000000000000000000e+00
0.000000000000000000e+00
0.000000000000000000e+00
0.000000000000000000e+00
0.000000000000000000e+00
0.000000000000000000e+00
0.000000000000000000e+00
0.000000000000000000e+00
0.000000000000000000e+00
0.000000000000000000e+00
0.000000000000000000e+00
0.000000000000000000e+00
0.000000000000000000e+00
0.000000000000000000e+00
0.000000000000000000e+00
0.000000000000000000e+00
0.000000000000000000e+00
0.000000000000000000e+00
0.000000000000000000e+00
0.000000000000000000e+00
0.000000000000000000e+00
0.000000000000000000e+00
0.000000000000000000e+00
0.000000000000000000e+00
0.000000000000000000e+00
0.000000000000000000e+00
0.000000000000000000e+00
0.000000000000000000e+00
0.000000000000000000e+00
0.000000000000000000e+00
0.000000000000000000e+00
0.000000000000000000e+00
0.000000000000000000e+00
0.000000000000000000e+00
0.000000000000000000e+00
0.000000000000000000e+00
0.000000000000000000e+00
0.000000000000000000e+00
0.000000000000000000e+00
0.000000000000000000e+00
0.000000000000000000e+00
0.000000000000000000e+00
0.000000000000000000e+00
0.000000000000000000e+00
0.000000000000000000e+00
0.000000000000000000e+00
0.000000000000000000e+00
0.000000000000000000e+00
0.000000000000000000e+00
0.000000000000000000e+00
0.000000000000000000e+00
0.000000000000000000e+00
0.000000000000000000e+00
0.000000000000000000e+00
0.000000000000000000e+00
0.000000000000000000e+00
0.000000000000000000e+00
0.000000000000000000e+00
0.000000000000000000e+00
0.000000000000000000e+00
0.000000000000000000e+00
0.000000000000000000e+00
0.000000000000000000e+00
0.000000000000000000e+00
0.000000000000000000e+00
0.000000000000000000e+00
0.000000000000000000e+00
0.000000000000000000e+00
0.000000000000000000e+00
0.000000000000000000e+00
0.000000000000000000e+00
0.000000000000000000e+00
0.000000000000000000e+00
0.000000000000000000e+00
0.000000000000000000e+00
0.000000000000000000e+00
0.000000000000000000e+00
0.000000000000000000e+00
0.000000000000000000e+00
0.000000000000000000e+00
0.000000000000000000e+00
0.000000000000000000e+00
0.000000000000000000e+00
0.000000000000000000e+00
0.000000000000000000e+00
0.000000000000000000e+00
0.000000000000000000e+00
0.000000000000000000e+00
0.000000000000000000e+00
0.000000000000000000e+00
0.000000000000000000e+00
0.000000000000000000e+00
0.000000000000000000e+00
0.000000000000000000e+00
0.000000000000000000e+00
0.000000000000000000e+00
0.000000000000000000e+00
0.000000000000000000e+00
0.000000000000000000e+00
0.000000000000000000e+00
0.000000000000000000e+00
0.000000000000000000e+00
0.000000000000000000e+00
0.000000000000000000e+00
0.000000000000000000e+00
0.000000000000000000e+00
0.000000000000000000e+00
0.000000000000000000e+00
0.000000000000000000e+00
0.000000000000000000e+00
0.000000000000000000e+00
0.000000000000000000e+00
0.000000000000000000e+00
0.000000000000000000e+00
0.000000000000000000e+00
0.000000000000000000e+00
0.000000000000000000e+00
0.000000000000000000e+00
0.000000000000000000e+00
0.000000000000000000e+00
0.000000000000000000e+00
0.000000000000000000e+00
0.000000000000000000e+00
0.000000000000000000e+00
0.000000000000000000e+00
0.000000000000000000e+00
0.000000000000000000e+00
0.000000000000000000e+00
0.000000000000000000e+00
0.000000000000000000e+00
0.000000000000000000e+00
0.000000000000000000e+00
0.000000000000000000e+00
0.000000000000000000e+00
0.000000000000000000e+00
0.000000000000000000e+00
0.000000000000000000e+00
0.000000000000000000e+00
0.000000000000000000e+00
0.000000000000000000e+00
0.000000000000000000e+00
0.000000000000000000e+00
0.000000000000000000e+00
0.000000000000000000e+00
0.000000000000000000e+00
-2.823383145360686353e+00
1.067797741611069995e+00
2.151931237947175557e+00
2.462404615201962965e+00
2.285706787852018085e+00
-5.917761212610045618e+00
2.293962303210373754e+00
7.373997740979488791e-01
1.727219125207174244e+00
1.744232529938798848e+00
1.535709605846876213e+00
-2.372609812735251733e+00
-5.900939457799718735e-01
1.584247700193392450e-01
1.078230934540145292e+00
6.914790919941604663e-01
6.805689085113193759e-02
-2.543127749266956616e+00
-1.123556093379740828e+00
-1.091479985794459706e+00
-6.154468381341220429e-01
6.649075913137660922e-03
2.182074115801561631e-01
-8.091052118357026091e-01
-1.310692372580382292e+00
-1.206363452199695097e+00
-7.773594742995920681e-01
3.039921025939437693e-01
-3.593013379958281267e-02
1.101354056712398277e+00
-1.545407400399099629e+00
-8.369689809419124105e-01
-2.261015657718865146e+00
-4.682340686639004934e-01
-2.672964093423834120e-01
3.410361134383790294e-01
9.524492305573099664e-04
7.878073403270595687e-01
7.424743755562718261e-01
-1.678594723117850934e-02
2.464000016909742019e+00
0.000000000000000000e+00
4.930767674385999833e+00
2.435139097368418604e+00
1.050625875787255303e+00
1.279921358837811995e+00
4.552158435199469833e-01
4.731923754083910083e+00
-5.199941361762769887e-01
3.456522352241604978e-01
8.551524372528136464e-01
1.858559043024125834e-01
-8.915641247315181372e-02
-2.739719394064349944e-01
-4.313355593138409882e-01
3.639219289340496211e-01
9.696887387041908113e-01
-2.802768389772419266e-01
-3.450326765621623548e-01
-2.426089658649293490e+00
-1.018695159844800635e+00
9.285909691425640045e-01
-1.035584014677662701e+00
4.259538642512933349e-01
-1.418083345141797347e-01
3.116146297178687408e-01
-1.991013595506064382e+00
-1.126780054875631043e+00
1.700979728945707092e-01
1.494776447860787671e+00
-1.400237304300934849e+00
-6.222414756638936506e-01
-5.074318448941449455e-01
-2.144291911431155107e-01
-1.549030049061145276e+00
-1.972123075978869045e+00
-6.772465987964214618e-01
1.981777295598412758e+00
-2.621614693208921487e+00
5.931758914022959850e-01
-6.287146882022004446e-01
0.000000000000000000e+00
0.000000000000000000e+00
-1.270807721727855166e-01
-5.189681624587466402e+00
0.000000000000000000e+00
-8.478115600193730783e-01
1.877188958981000466e+00
1.004117456761999705e+00
2.051331038539589979e+00
1.031947409315931014e-01
-2.558217114161197347e+00
4.318659000244602919e-01
9.932469319606762603e-01
9.080519006268076287e-01
1.341747582732875310e+00
-2.060442089351332218e+00
-1.815509379191142525e+00
6.296567471971792340e-01
9.415142134115394024e-01
2.054344227075595164e-01
7.413462398566591505e-01
-1.115483855589545881e+00
-1.274094614177858187e+00
-8.440255146708375289e-01
-6.426642209397931405e-01
-1.189033053424999320e-01
6.772293442728156698e-01
8.530876609510682496e-01
1.851637613608077548e-01
-9.864799007074179227e-02
5.780031602057347229e-01
4.555091485955528596e-01
5.112041847756864099e-01
1.168776147981526181e+00
1.276360112803364588e+00
1.401221925403479396e-01
-5.309236329362063689e-01
1.336782174084638342e-01
1.084365068531620291e-01
6.721759069049422219e-01
-8.435698879872629563e-01
7.838252333472649491e-01
5.005297800971371114e-01
1.017449666408828529e-01
1.925006719770653074e+00
7.104562363087483234e+00
0.000000000000000000e+00
9.800626720216308874e-01
5.888741956794123489e-01
9.018893358781214786e-01
6.733489919766790788e-01
2.014017953212944523e+00
1.033100557466841707e+00
2.242562757992199451e-01
-7.792087521192713612e-03
6.090372724702632912e-01
1.031860067861192443e+00
2.768883883610280261e-01
-5.442308273112208550e-01
8.248427769609980587e-01
1.516811666238475853e+00
3.232977111039324059e-01
3.038463506775005984e-01
-1.077963392591177572e+00
-1.341713449435650185e+00
-1.674979042020861564e-01
-1.334408385037262557e+00
-3.650483845152081575e-01
8.521311935117822367e-01
-1.406531042154625100e+00
-2.314737556658132966e+00
-1.419800823969068704e+00
-9.270524926137251320e-01
-1.737124019945638365e-01
-2.757310216674735970e-01
-7.490630603468932946e-01
-1.384102240713108056e+00
-1.469491862662617221e+00
-9.807527106329548827e-01
-1.751976664758967850e+00
-5.560251162921245882e-01
1.410711955368017634e+00
1.683921843897646431e+00
3.732866921424898288e-01
1.236240545002450952e+00
0.000000000000000000e+00
0.000000000000000000e+00
1.563341567604598914e-01
7.235675695161056797e-01
1.806454319466150205e+00
-2.554685413025372664e+00
0.000000000000000000e+00
-2.323135417728405816e-01
4.973556560473950394e-02
4.850833019999184481e-01
9.473174487433896340e-01
2.114033018099041317e-01
-1.309152085292593082e+00
3.087478133227337662e-01
5.652167463615275222e-01
7.514534606298464148e-01
-3.188859810550099261e-01
-1.382303434049627355e-01
-1.904760841455821252e+00
2.894435943205502793e-01
3.470559784893595401e-01
3.867269785553639760e-01
-1.152102818895984759e+00
-3.747306952306462824e-01
3.509895645232607442e-01
-7.444144346573332571e-01
5.942637587767799490e-01
-4.844476411910340063e-01
1.000707134871002602e+00
8.764603870932839991e-01
2.524295927781395332e-01
3.718881112452557813e-01
-2.553709490055926068e+00
1.677592126059174182e-01
-1.638553306673235233e-01
1.057105607104636746e+00
1.017093194498172315e-01
9.941673202060714587e-01
-4.529093745826677786e-01
1.462207296031457826e+00
4.350377879259537117e-01
